<?xml version="1.0"?>
<opencv_storage>
<cascade>
  <stageType>BOOST</stageType>
  <featureType>HAAR</featureType>
  <height>20</height>
  <width>20</width>
  <stageParams>
    <boostType>GAB</boostType>
    <minHitRate>9.9500000476837158e-01</minHitRate>
    <maxFalseAlarm>5.0000000000000000e-01</maxFalseAlarm>
    <weightTrimRate>9.4999999999999996e-01</weightTrimRate>
    <maxDepth>1</maxDepth>
    <maxWeakCount>100</maxWeakCount></stageParams>
  <featureParams>
    <maxCatCount>0</maxCatCount>
    <featSize>1</featSize>
    <mode>BASIC</mode></featureParams>
  <stageNum>10</stageNum>
  <stages>
    <!-- stage 0 -->
    <_>
      <maxWeakCount>18</maxWeakCount>
      <stageThreshold>-7.5319194793701172e-01</stageThreshold>
      <weakClassifiers>
        <_>
          <internalNodes>
            0 -1 415 2.7284445241093636e-03</internalNodes>
          <leafValues>
            5.4354943335056305e-02 6.9650471210479736e-01</leafValues></_>
        <_>
          <internalNodes>
            0 -1 335 6.1325770802795887e-03</internalNodes>
          <leafValues>
            -1.7123189568519592e-01 5.9136366844177246e-01</leafValues></_>
        <_>
          <internalNodes>
            0 -1 88 -1.6802521422505379e-03</internalNodes>
          <leafValues>
            3.5724928975105286e-01 -2.6091432571411133e-01</leafValues></_>
        <_>
          <internalNodes>
            0 -1 295 -1.4253305271267891e-03</internalNodes>
          <leafValues>
            4.0574088692665100e-01 -1.8154752254486084e-01</leafValues></_>
        <_>
          <internalNodes>
            0 -1 171 6.2036039307713509e-03</internalNodes>
          <leafValues>
            -1.6870373487472534e-01 4.8360297083854675e-01</leafValues></_>
        <_>
          <internalNodes>
            0 -1 243 -6.2077920883893967e-03</internalNodes>
          <leafValues>
            4.2612701654434204e-01 -1.6410510241985321e-01</leafValues></_>
        <_>
          <internalNodes>
            0 -1 474 -3.8555515930056572e-03</internalNodes>
          <leafValues>
            4.3270912766456604e-01 -1.7624329030513763e-01</leafValues></_>
        <_>
          <internalNodes>
            0 -1 149 4.4197440147399902e-03</internalNodes>
          <leafValues>
            -1.4285150170326233e-01 4.7873514890670776e-01</leafValues></_>
        <_>
          <internalNodes>
            0 -1 23 -2.0421305671334267e-03</internalNodes>
          <leafValues>
            3.6030107736587524e-01 -1.9922181963920593e-01</leafValues></_>
        <_>
          <internalNodes>
            0 -1 275 -1.4850194565951824e-03</internalNodes>
          <leafValues>
            3.9778098464012146e-01 -1.4128424227237701e-01</leafValues></_>
        <_>
          <internalNodes>
            0 -1 457 1.5226777177304029e-03</internalNodes>
          <leafValues>
            -1.1812423169612885e-01 4.2206934094429016e-01</leafValues></_>
        <_>
          <internalNodes>
            0 -1 454 -3.5448949784040451e-03</internalNodes>
          <leafValues>
            3.9678940176963806e-01 -1.3774724304676056e-01</leafValues></_>
        <_>
          <internalNodes>
            0 -1 158 -1.3854868011549115e-03</internalNodes>
          <leafValues>
            3.0345818400382996e-01 -1.5697816014289856e-01</leafValues></_>
        <_>
          <internalNodes>
            0 -1 51 -1.9766129553318024e-03</internalNodes>
          <leafValues>
            4.1479465365409851e-01 -1.5387220680713654e-01</leafValues></_>
        <_>
          <internalNodes>
            0 -1 109 6.3335448503494263e-03</internalNodes>
          <leafValues>
            6.6805206239223480e-02 -8.0623817443847656e-01</leafValues></_>
        <_>
          <internalNodes>
            0 -1 249 -8.1175577361136675e-04</internalNodes>
          <leafValues>
            2.4369210004806519e-01 -1.9723759591579437e-01</leafValues></_>
        <_>
          <internalNodes>
            0 -1 118 2.2129097487777472e-03</internalNodes>
          <leafValues>
            7.6152428984642029e-02 -5.9213811159133911e-01</leafValues></_>
        <_>
          <internalNodes>
            0 -1 239 -9.8366744350641966e-04</internalNodes>
          <leafValues>
            3.0488109588623047e-01 -1.6154852509498596e-01</leafValues></_></weakClassifiers></_>
    <!-- stage 1 -->
    <_>
      <maxWeakCount>38</maxWeakCount>
      <stageThreshold>-8.0337989330291748e-01</stageThreshold>
      <weakClassifiers>
        <_>
          <internalNodes>
            0 -1 430 1.8105229828506708e-03</internalNodes>
          <leafValues>
            1.7120181024074554e-01 6.3888889551162720e-01</leafValues></_>
        <_>
          <internalNodes>
            0 -1 342 -2.3658608552068472e-03</internalNodes>
          <leafValues>
            3.6743751168251038e-01 -1.7418493330478668e-01</leafValues></_>
        <_>
          <internalNodes>
            0 -1 83 7.2669237852096558e-03</internalNodes>
          <leafValues>
            -1.7947417497634888e-01 4.0939271450042725e-01</leafValues></_>
        <_>
          <internalNodes>
            0 -1 135 -2.5848068762570620e-03</internalNodes>
          <leafValues>
            3.4736275672912598e-01 -1.1082426458597183e-01</leafValues></_>
        <_>
          <internalNodes>
            0 -1 264 -1.0775689035654068e-02</internalNodes>
          <leafValues>
            4.1900971531867981e-01 -1.3981395959854126e-01</leafValues></_>
        <_>
          <internalNodes>
            0 -1 109 -4.7179674729704857e-03</internalNodes>
          <leafValues>
            -7.1240800619125366e-01 7.0539049804210663e-02</leafValues></_>
        <_>
          <internalNodes>
            0 -1 488 -9.8617561161518097e-04</internalNodes>
          <leafValues>
            2.5441917777061462e-01 -2.1006813645362854e-01</leafValues></_>
        <_>
          <internalNodes>
            0 -1 172 9.5521323382854462e-03</internalNodes>
          <leafValues>
            -1.3337039947509766e-01 3.4871566295623779e-01</leafValues></_>
        <_>
          <internalNodes>
            0 -1 246 -2.8858808800578117e-03</internalNodes>
          <leafValues>
            3.3047536015510559e-01 -1.5267327427864075e-01</leafValues></_>
        <_>
          <internalNodes>
            0 -1 253 1.1132763326168060e-01</internalNodes>
          <leafValues>
            -6.5639041364192963e-02 5.7370901107788086e-01</leafValues></_>
        <_>
          <internalNodes>
            0 -1 53 8.4820529446005821e-04</internalNodes>
          <leafValues>
            -1.2837924063205719e-01 2.8654462099075317e-01</leafValues></_>
        <_>
          <internalNodes>
            0 -1 118 -2.1092542447149754e-03</internalNodes>
          <leafValues>
            -5.2646219730377197e-01 7.3388911783695221e-02</leafValues></_>
        <_>
          <internalNodes>
            0 -1 54 -9.8886364139616489e-04</internalNodes>
          <leafValues>
            2.6024696230888367e-01 -1.5629085898399353e-01</leafValues></_>
        <_>
          <internalNodes>
            0 -1 122 -7.8607496106997132e-04</internalNodes>
          <leafValues>
            2.7369976043701172e-01 -1.3303641974925995e-01</leafValues></_>
        <_>
          <internalNodes>
            0 -1 87 -1.5387505991384387e-03</internalNodes>
          <leafValues>
            -4.6712851524353027e-01 9.1696403920650482e-02</leafValues></_>
        <_>
          <internalNodes>
            0 -1 76 -9.3872926663607359e-04</internalNodes>
          <leafValues>
            2.0589742064476013e-01 -1.7982923984527588e-01</leafValues></_>
        <_>
          <internalNodes>
            0 -1 101 -3.9080432616174221e-03</internalNodes>
          <leafValues>
            -5.7780772447586060e-01 6.6882409155368805e-02</leafValues></_>
        <_>
          <internalNodes>
            0 -1 211 -4.5706862583756447e-03</internalNodes>
          <leafValues>
            3.4273108839988708e-01 -1.0828391462564468e-01</leafValues></_>
        <_>
          <internalNodes>
            0 -1 400 -9.6831307746469975e-04</internalNodes>
          <leafValues>
            2.3091308772563934e-01 -1.5427421033382416e-01</leafValues></_>
        <_>
          <internalNodes>
            0 -1 13 -1.3896495802327991e-03</internalNodes>
          <leafValues>
            2.1526938676834106e-01 -1.7147354781627655e-01</leafValues></_>
        <_>
          <internalNodes>
            0 -1 21 3.5080793313682079e-03</internalNodes>
          <leafValues>
            -1.2448937445878983e-01 2.6694050431251526e-01</leafValues></_>
        <_>
          <internalNodes>
            0 -1 297 -4.8775151371955872e-03</internalNodes>
          <leafValues>
            -5.6522578001022339e-01 6.0858730226755142e-02</leafValues></_>
        <_>
          <internalNodes>
            0 -1 16 -2.3796125315129757e-03</internalNodes>
          <leafValues>
            3.2792156934738159e-01 -1.0737081617116928e-01</leafValues></_>
        <_>
          <internalNodes>
            0 -1 117 -5.2176667377352715e-03</internalNodes>
          <leafValues>
            -7.6990109682083130e-01 4.9847401678562164e-02</leafValues></_>
        <_>
          <internalNodes>
            0 -1 308 1.4762069331482053e-03</internalNodes>
          <leafValues>
            -1.6511230170726776e-01 2.0185223221778870e-01</leafValues></_>
        <_>
          <internalNodes>
            0 -1 478 -2.6304014027118683e-03</internalNodes>
          <leafValues>
            2.7977442741394043e-01 -1.1949604749679565e-01</leafValues></_>
        <_>
          <internalNodes>
            0 -1 194 2.6865903288125992e-02</internalNodes>
          <leafValues>
            -8.7590828537940979e-02 3.9583390951156616e-01</leafValues></_>
        <_>
          <internalNodes>
            0 -1 470 -2.3103591520339251e-03</internalNodes>
          <leafValues>
            -4.2840242385864258e-01 8.2317262887954712e-02</leafValues></_>
        <_>
          <internalNodes>
            0 -1 408 -8.2491477951407433e-04</internalNodes>
          <leafValues>
            2.1416445076465607e-01 -1.5681576728820801e-01</leafValues></_>
        <_>
          <internalNodes>
            0 -1 477 -3.5296794958412647e-03</internalNodes>
          <leafValues>
            -6.2003320455551147e-01 5.5124416947364807e-02</leafValues></_>
        <_>
          <internalNodes>
            0 -1 163 8.6198568344116211e-02</internalNodes>
          <leafValues>
            -7.3098957538604736e-02 4.9518391489982605e-01</leafValues></_>
        <_>
          <internalNodes>
            0 -1 232 2.5233700871467590e-02</internalNodes>
          <leafValues>
            -7.6042443513870239e-02 4.0096673369407654e-01</leafValues></_>
        <_>
          <internalNodes>
            0 -1 291 -3.0593783594667912e-03</internalNodes>
          <leafValues>
            -5.6317329406738281e-01 6.0410100966691971e-02</leafValues></_>
        <_>
          <internalNodes>
            0 -1 272 -4.6928063966333866e-03</internalNodes>
          <leafValues>
            -6.5245026350021362e-01 4.6531073749065399e-02</leafValues></_>
        <_>
          <internalNodes>
            0 -1 338 -4.7943001845851541e-04</internalNodes>
          <leafValues>
            2.0577631890773773e-01 -1.5904669463634491e-01</leafValues></_>
        <_>
          <internalNodes>
            0 -1 146 3.7468620575964451e-03</internalNodes>
          <leafValues>
            -1.0135664045810699e-01 3.3981576561927795e-01</leafValues></_>
        <_>
          <internalNodes>
            0 -1 382 6.4789215102791786e-03</internalNodes>
          <leafValues>
            -1.0967388749122620e-01 2.8411245346069336e-01</leafValues></_>
        <_>
          <internalNodes>
            0 -1 310 1.4945559669286013e-03</internalNodes>
          <leafValues>
            -9.9789775907993317e-02 3.3547681570053101e-01</leafValues></_></weakClassifiers></_>
    <!-- stage 2 -->
    <_>
      <maxWeakCount>45</maxWeakCount>
      <stageThreshold>-7.5981360673904419e-01</stageThreshold>
      <weakClassifiers>
        <_>
          <internalNodes>
            0 -1 424 1.5990167856216431e-02</internalNodes>
          <leafValues>
            2.3291492462158203e-01 7.2677594423294067e-01</leafValues></_>
        <_>
          <internalNodes>
            0 -1 332 5.8897128328680992e-03</internalNodes>
          <leafValues>
            -8.0748856067657471e-02 5.3854513168334961e-01</leafValues></_>
        <_>
          <internalNodes>
            0 -1 104 2.0255097188055515e-03</internalNodes>
          <leafValues>
            7.4743650853633881e-02 -5.6508523225784302e-01</leafValues></_>
        <_>
          <internalNodes>
            0 -1 270 -1.4614111278206110e-03</internalNodes>
          <leafValues>
            2.8715083003044128e-01 -1.5114691853523254e-01</leafValues></_>
        <_>
          <internalNodes>
            0 -1 241 1.2634787708520889e-03</internalNodes>
          <leafValues>
            -1.6868562996387482e-01 3.0048981308937073e-01</leafValues></_>
        <_>
          <internalNodes>
            0 -1 49 1.3782148016616702e-03</internalNodes>
          <leafValues>
            -1.0974382609128952e-01 3.3164605498313904e-01</leafValues></_>
        <_>
          <internalNodes>
            0 -1 187 1.5427988767623901e-01</internalNodes>
          <leafValues>
            -9.1887153685092926e-02 4.4893556833267212e-01</leafValues></_>
        <_>
          <internalNodes>
            0 -1 219 -3.3530551008880138e-03</internalNodes>
          <leafValues>
            2.8499937057495117e-01 -1.2522475421428680e-01</leafValues></_>
        <_>
          <internalNodes>
            0 -1 418 -9.0892631560564041e-03</internalNodes>
          <leafValues>
            3.5608637332916260e-01 -7.8771702945232391e-02</leafValues></_>
        <_>
          <internalNodes>
            0 -1 453 1.6974088503047824e-03</internalNodes>
          <leafValues>
            -1.3549824059009552e-01 2.4588485062122345e-01</leafValues></_>
        <_>
          <internalNodes>
            0 -1 178 -7.1210637688636780e-02</internalNodes>
          <leafValues>
            4.9649563431739807e-01 -6.6470190882682800e-02</leafValues></_>
        <_>
          <internalNodes>
            0 -1 261 5.8853320777416229e-02</internalNodes>
          <leafValues>
            -8.5834816098213196e-02 3.6267766356468201e-01</leafValues></_>
        <_>
          <internalNodes>
            0 -1 116 2.6020770892500877e-03</internalNodes>
          <leafValues>
            6.4331091940402985e-02 -4.8992270231246948e-01</leafValues></_>
        <_>
          <internalNodes>
            0 -1 94 2.0435657352209091e-03</internalNodes>
          <leafValues>
            6.5687172114849091e-02 -5.0711220502853394e-01</leafValues></_>
        <_>
          <internalNodes>
            0 -1 103 -7.6161406468600035e-04</internalNodes>
          <leafValues>
            2.4849161505699158e-01 -1.4467379450798035e-01</leafValues></_>
        <_>
          <internalNodes>
            0 -1 139 6.1183245852589607e-03</internalNodes>
          <leafValues>
            -1.0531505942344666e-01 3.2928141951560974e-01</leafValues></_>
        <_>
          <internalNodes>
            0 -1 31 -1.0404597967863083e-02</internalNodes>
          <leafValues>
            4.5460742712020874e-01 -1.0536385327577591e-01</leafValues></_>
        <_>
          <internalNodes>
            0 -1 301 4.8155477270483971e-03</internalNodes>
          <leafValues>
            5.3583987057209015e-02 -6.3843929767608643e-01</leafValues></_>
        <_>
          <internalNodes>
            0 -1 339 -5.4635555716231465e-04</internalNodes>
          <leafValues>
            1.8055284023284912e-01 -1.5956833958625793e-01</leafValues></_>
        <_>
          <internalNodes>
            0 -1 87 1.2983113992959261e-03</internalNodes>
          <leafValues>
            9.0532585978507996e-02 -3.1992638111114502e-01</leafValues></_>
        <_>
          <internalNodes>
            0 -1 87 -1.0187849402427673e-03</internalNodes>
          <leafValues>
            -3.7266767024993896e-01 8.5897855460643768e-02</leafValues></_>
        <_>
          <internalNodes>
            0 -1 19 -9.4869756139814854e-04</internalNodes>
          <leafValues>
            2.4631787836551666e-01 -1.4124834537506104e-01</leafValues></_>
        <_>
          <internalNodes>
            0 -1 345 6.0217580758035183e-03</internalNodes>
          <leafValues>
            -1.5520684421062469e-01 2.0905451476573944e-01</leafValues></_>
        <_>
          <internalNodes>
            0 -1 447 -2.7216603048145771e-03</internalNodes>
          <leafValues>
            3.1363856792449951e-01 -1.0215925425291061e-01</leafValues></_>
        <_>
          <internalNodes>
            0 -1 439 -2.3606009781360626e-03</internalNodes>
          <leafValues>
            -3.6148202419281006e-01 9.4951584935188293e-02</leafValues></_>
        <_>
          <internalNodes>
            0 -1 120 -4.4953548349440098e-03</internalNodes>
          <leafValues>
            -5.7123309373855591e-01 4.8561528325080872e-02</leafValues></_>
        <_>
          <internalNodes>
            0 -1 157 -1.6347283963114023e-03</internalNodes>
          <leafValues>
            -3.8765612244606018e-01 7.0942752063274384e-02</leafValues></_>
        <_>
          <internalNodes>
            0 -1 71 1.8331464380025864e-02</internalNodes>
          <leafValues>
            -9.5341786742210388e-02 2.9753819108009338e-01</leafValues></_>
        <_>
          <internalNodes>
            0 -1 154 -3.0727004632353783e-03</internalNodes>
          <leafValues>
            4.0161758661270142e-01 -1.0499360412359238e-01</leafValues></_>
        <_>
          <internalNodes>
            0 -1 266 -3.7644202820956707e-03</internalNodes>
          <leafValues>
            3.7622678279876709e-01 -6.7751295864582062e-02</leafValues></_>
        <_>
          <internalNodes>
            0 -1 472 -3.0109044164419174e-03</internalNodes>
          <leafValues>
            2.7876690030097961e-01 -9.4446629285812378e-02</leafValues></_>
        <_>
          <internalNodes>
            0 -1 417 -4.8273527063429356e-03</internalNodes>
          <leafValues>
            -6.2786453962326050e-01 4.3301966041326523e-02</leafValues></_>
        <_>
          <internalNodes>
            0 -1 327 -2.3883068934082985e-03</internalNodes>
          <leafValues>
            2.8146374225616455e-01 -1.0011208802461624e-01</leafValues></_>
        <_>
          <internalNodes>
            0 -1 328 1.9064799416810274e-03</internalNodes>
          <leafValues>
            -1.1272559314966202e-01 2.7949300408363342e-01</leafValues></_>
        <_>
          <internalNodes>
            0 -1 340 -3.0705936253070831e-02</internalNodes>
          <leafValues>
            -7.5942695140838623e-01 3.9008487015962601e-02</leafValues></_>
        <_>
          <internalNodes>
            0 -1 293 2.4404861032962799e-02</internalNodes>
          <leafValues>
            3.6979399621486664e-02 -6.1478281021118164e-01</leafValues></_>
        <_>
          <internalNodes>
            0 -1 183 1.4506196603178978e-02</internalNodes>
          <leafValues>
            6.4153231680393219e-02 -4.4382962584495544e-01</leafValues></_>
        <_>
          <internalNodes>
            0 -1 225 5.0014248117804527e-03</internalNodes>
          <leafValues>
            -1.2075397372245789e-01 2.5439137220382690e-01</leafValues></_>
        <_>
          <internalNodes>
            0 -1 276 -1.5208944678306580e-03</internalNodes>
          <leafValues>
            2.0454351603984833e-01 -1.4522950351238251e-01</leafValues></_>
        <_>
          <internalNodes>
            0 -1 480 -5.5690882727503777e-03</internalNodes>
          <leafValues>
            -7.9883718490600586e-01 4.0434554219245911e-02</leafValues></_>
        <_>
          <internalNodes>
            0 -1 323 -7.8930165618658066e-03</internalNodes>
          <leafValues>
            5.0282526016235352e-01 -6.1187990009784698e-02</leafValues></_>
        <_>
          <internalNodes>
            0 -1 344 -6.9767259992659092e-04</internalNodes>
          <leafValues>
            1.9146506488323212e-01 -1.4326120913028717e-01</leafValues></_>
        <_>
          <internalNodes>
            0 -1 39 -1.4179411344230175e-02</internalNodes>
          <leafValues>
            2.8308361768722534e-01 -9.3109562993049622e-02</leafValues></_>
        <_>
          <internalNodes>
            0 -1 89 9.1653550043702126e-03</internalNodes>
          <leafValues>
            -8.7612152099609375e-02 3.5915073752403259e-01</leafValues></_>
        <_>
          <internalNodes>
            0 -1 242 6.6573787480592728e-03</internalNodes>
          <leafValues>
            -6.9387823343276978e-02 3.6602076888084412e-01</leafValues></_></weakClassifiers></_>
    <!-- stage 3 -->
    <_>
      <maxWeakCount>61</maxWeakCount>
      <stageThreshold>-7.3484897613525391e-01</stageThreshold>
      <weakClassifiers>
        <_>
          <internalNodes>
            0 -1 210 6.7947846837341785e-03</internalNodes>
          <leafValues>
            1.9083969295024872e-01 5.7673019170761108e-01</leafValues></_>
        <_>
          <internalNodes>
            0 -1 402 -1.3577712234109640e-03</internalNodes>
          <leafValues>
            2.8224810957908630e-01 -1.5859219431877136e-01</leafValues></_>
        <_>
          <internalNodes>
            0 -1 130 -3.4143768716603518e-03</internalNodes>
          <leafValues>
            -5.4512530565261841e-01 5.2934248000383377e-02</leafValues></_>
        <_>
          <internalNodes>
            0 -1 209 4.2067742906510830e-03</internalNodes>
          <leafValues>
            -1.4131265878677368e-01 1.9519022107124329e-01</leafValues></_>
        <_>
          <internalNodes>
            0 -1 404 -8.0064833164215088e-03</internalNodes>
          <leafValues>
            2.5762346386909485e-01 -1.2231084704399109e-01</leafValues></_>
        <_>
          <internalNodes>
            0 -1 439 2.8819460421800613e-03</internalNodes>
          <leafValues>
            6.5548352897167206e-02 -3.8440442085266113e-01</leafValues></_>
        <_>
          <internalNodes>
            0 -1 151 1.3218913227319717e-02</internalNodes>
          <leafValues>
            -1.0731294751167297e-01 2.6990875601768494e-01</leafValues></_>
        <_>
          <internalNodes>
            0 -1 311 3.0565792694687843e-03</internalNodes>
          <leafValues>
            6.9188505411148071e-02 -4.2275422811508179e-01</leafValues></_>
        <_>
          <internalNodes>
            0 -1 130 2.1402062848210335e-03</internalNodes>
          <leafValues>
            5.8026161044836044e-02 -4.0379196405410767e-01</leafValues></_>
        <_>
          <internalNodes>
            0 -1 87 2.8217090293765068e-03</internalNodes>
          <leafValues>
            5.9418648481369019e-02 -4.7764581441879272e-01</leafValues></_>
        <_>
          <internalNodes>
            0 -1 307 -1.3832782860845327e-03</internalNodes>
          <leafValues>
            2.5699606537818909e-01 -1.0818888992071152e-01</leafValues></_>
        <_>
          <internalNodes>
            0 -1 307 6.2719779089093208e-04</internalNodes>
          <leafValues>
            -1.0934202373027802e-01 2.8217342495918274e-01</leafValues></_>
        <_>
          <internalNodes>
            0 -1 100 -4.2640967294573784e-03</internalNodes>
          <leafValues>
            3.2308486104011536e-01 -7.9704441130161285e-02</leafValues></_>
        <_>
          <internalNodes>
            0 -1 309 -2.5142941158264875e-03</internalNodes>
          <leafValues>
            -5.3572338819503784e-01 4.8207364976406097e-02</leafValues></_>
        <_>
          <internalNodes>
            0 -1 419 -1.0964497923851013e-02</internalNodes>
          <leafValues>
            2.7472916245460510e-01 -9.4306841492652893e-02</leafValues></_>
        <_>
          <internalNodes>
            0 -1 316 -1.9201845861971378e-03</internalNodes>
          <leafValues>
            1.7533978819847107e-01 -1.4930666983127594e-01</leafValues></_>
        <_>
          <internalNodes>
            0 -1 470 3.7735006771981716e-03</internalNodes>
          <leafValues>
            4.7046300023794174e-02 -6.0514068603515625e-01</leafValues></_>
        <_>
          <internalNodes>
            0 -1 358 -4.1861610952764750e-04</internalNodes>
          <leafValues>
            1.9464841485023499e-01 -1.4261887967586517e-01</leafValues></_>
        <_>
          <internalNodes>
            0 -1 233 2.5669854134321213e-02</internalNodes>
          <leafValues>
            -5.1544532179832458e-02 5.0400298833847046e-01</leafValues></_>
        <_>
          <internalNodes>
            0 -1 118 3.4851408563554287e-03</internalNodes>
          <leafValues>
            4.8491917550563812e-02 -6.0967755317687988e-01</leafValues></_>
        <_>
          <internalNodes>
            0 -1 352 -1.6988113056868315e-03</internalNodes>
          <leafValues>
            2.1624685823917389e-01 -1.2741056084632874e-01</leafValues></_>
        <_>
          <internalNodes>
            0 -1 296 -5.3162677213549614e-03</internalNodes>
          <leafValues>
            -5.5279684066772461e-01 4.6383108943700790e-02</leafValues></_>
        <_>
          <internalNodes>
            0 -1 457 6.3293043058365583e-04</internalNodes>
          <leafValues>
            -1.3763049244880676e-01 1.9254921376705170e-01</leafValues></_>
        <_>
          <internalNodes>
            0 -1 176 -3.6379959434270859e-02</internalNodes>
          <leafValues>
            3.8038125634193420e-01 -6.5916582942008972e-02</leafValues></_>
        <_>
          <internalNodes>
            0 -1 24 -1.1095310328528285e-03</internalNodes>
          <leafValues>
            1.8799844384193420e-01 -1.2824241816997528e-01</leafValues></_>
        <_>
          <internalNodes>
            0 -1 117 3.2784675713628531e-03</internalNodes>
          <leafValues>
            6.3750132918357849e-02 -4.3045893311500549e-01</leafValues></_>
        <_>
          <internalNodes>
            0 -1 116 -2.7124406769871712e-03</internalNodes>
          <leafValues>
            -4.9855065345764160e-01 4.7568440437316895e-02</leafValues></_>
        <_>
          <internalNodes>
            0 -1 207 3.3614991698414087e-03</internalNodes>
          <leafValues>
            -7.3533341288566589e-02 3.2785922288894653e-01</leafValues></_>
        <_>
          <internalNodes>
            0 -1 57 -1.2415819801390171e-03</internalNodes>
          <leafValues>
            2.1500357985496521e-01 -1.2210420519113541e-01</leafValues></_>
        <_>
          <internalNodes>
            0 -1 267 1.1903559789061546e-02</internalNodes>
          <leafValues>
            -1.0330592095851898e-01 2.6848837733268738e-01</leafValues></_>
        <_>
          <internalNodes>
            0 -1 36 -4.7173291444778442e-02</internalNodes>
          <leafValues>
            -5.2052944898605347e-01 5.6008156388998032e-02</leafValues></_>
        <_>
          <internalNodes>
            0 -1 60 -1.7004980472847819e-03</internalNodes>
          <leafValues>
            2.0991154015064240e-01 -1.3652579486370087e-01</leafValues></_>
        <_>
          <internalNodes>
            0 -1 121 1.1658785864710808e-02</internalNodes>
          <leafValues>
            -7.1508571505546570e-02 3.9013513922691345e-01</leafValues></_>
        <_>
          <internalNodes>
            0 -1 468 1.7209833022207022e-03</internalNodes>
          <leafValues>
            8.1027224659919739e-02 -3.2827407121658325e-01</leafValues></_>
        <_>
          <internalNodes>
            0 -1 353 4.0027447044849396e-02</internalNodes>
          <leafValues>
            -6.4706794917583466e-02 3.9403757452964783e-01</leafValues></_>
        <_>
          <internalNodes>
            0 -1 35 2.8446428477764130e-02</internalNodes>
          <leafValues>
            -1.1328259110450745e-01 2.6670816540718079e-01</leafValues></_>
        <_>
          <internalNodes>
            0 -1 205 1.8342563882470131e-02</internalNodes>
          <leafValues>
            5.2968796342611313e-02 -4.8510593175888062e-01</leafValues></_>
        <_>
          <internalNodes>
            0 -1 490 1.4908961020410061e-03</internalNodes>
          <leafValues>
            -1.1108394712209702e-01 2.2582866251468658e-01</leafValues></_>
        <_>
          <internalNodes>
            0 -1 460 1.1673779226839542e-03</internalNodes>
          <leafValues>
            -1.3150222599506378e-01 1.9142693281173706e-01</leafValues></_>
        <_>
          <internalNodes>
            0 -1 433 5.5890744552016258e-03</internalNodes>
          <leafValues>
            -9.9349938333034515e-02 2.5080448389053345e-01</leafValues></_>
        <_>
          <internalNodes>
            0 -1 432 -3.7675546482205391e-03</internalNodes>
          <leafValues>
            3.3931374549865723e-01 -7.2931118309497833e-02</leafValues></_>
        <_>
          <internalNodes>
            0 -1 336 -1.2113724648952484e-01</internalNodes>
          <leafValues>
            4.1952788829803467e-01 -5.4872836917638779e-02</leafValues></_>
        <_>
          <internalNodes>
            0 -1 285 6.0993172228336334e-02</internalNodes>
          <leafValues>
            -3.5400595515966415e-02 6.5639734268188477e-01</leafValues></_>
        <_>
          <internalNodes>
            0 -1 371 4.8891194164752960e-03</internalNodes>
          <leafValues>
            -1.4368154108524323e-01 1.7476701736450195e-01</leafValues></_>
        <_>
          <internalNodes>
            0 -1 164 7.4499152600765228e-02</internalNodes>
          <leafValues>
            -5.3184650838375092e-02 4.7628268599510193e-01</leafValues></_>
        <_>
          <internalNodes>
            0 -1 216 -1.9390176981687546e-02</internalNodes>
          <leafValues>
            4.7876900434494019e-01 -4.9120578914880753e-02</leafValues></_>
        <_>
          <internalNodes>
            0 -1 306 -3.5398401319980621e-02</internalNodes>
          <leafValues>
            5.6403130292892456e-01 -4.3798521161079407e-02</leafValues></_>
        <_>
          <internalNodes>
            0 -1 186 8.3963517099618912e-03</internalNodes>
          <leafValues>
            -6.9447398185729980e-02 3.4287872910499573e-01</leafValues></_>
        <_>
          <internalNodes>
            0 -1 465 -5.8514918200671673e-03</internalNodes>
          <leafValues>
            -3.8705995678901672e-01 6.8014562129974365e-02</leafValues></_>
        <_>
          <internalNodes>
            0 -1 257 -4.1625134646892548e-02</internalNodes>
          <leafValues>
            6.5688848495483398e-01 -4.1924640536308289e-02</leafValues></_>
        <_>
          <internalNodes>
            0 -1 403 2.5992230512201786e-03</internalNodes>
          <leafValues>
            -8.3797827363014221e-02 2.6484370231628418e-01</leafValues></_>
        <_>
          <internalNodes>
            0 -1 348 6.3223326578736305e-03</internalNodes>
          <leafValues>
            -1.0736394673585892e-01 2.4287220835685730e-01</leafValues></_>
        <_>
          <internalNodes>
            0 -1 258 -3.5248041152954102e-02</internalNodes>
          <leafValues>
            4.7197201848030090e-01 -5.4858129471540451e-02</leafValues></_>
        <_>
          <internalNodes>
            0 -1 108 -4.5477440580725670e-03</internalNodes>
          <leafValues>
            -7.0609116554260254e-01 4.0147978812456131e-02</leafValues></_>
        <_>
          <internalNodes>
            0 -1 234 -6.4975723624229431e-02</internalNodes>
          <leafValues>
            8.5103440284729004e-01 -3.3194169402122498e-02</leafValues></_>
        <_>
          <internalNodes>
            0 -1 442 3.8023539818823338e-03</internalNodes>
          <leafValues>
            5.3552705794572830e-02 -5.1740932464599609e-01</leafValues></_>
        <_>
          <internalNodes>
            0 -1 235 -2.7982357889413834e-02</internalNodes>
          <leafValues>
            5.0751250982284546e-01 -5.0932478159666061e-02</leafValues></_>
        <_>
          <internalNodes>
            0 -1 280 -3.8306764326989651e-03</internalNodes>
          <leafValues>
            -4.2477324604988098e-01 5.6777939200401306e-02</leafValues></_>
        <_>
          <internalNodes>
            0 -1 75 -2.4338088929653168e-02</internalNodes>
          <leafValues>
            3.4365206956863403e-01 -7.1739688515663147e-02</leafValues></_>
        <_>
          <internalNodes>
            0 -1 188 -8.2251831190660596e-04</internalNodes>
          <leafValues>
            2.6090013980865479e-01 -9.0364806354045868e-02</leafValues></_>
        <_>
          <internalNodes>
            0 -1 268 6.5263360738754272e-04</internalNodes>
          <leafValues>
            -9.9352948367595673e-02 2.4656853079795837e-01</leafValues></_></weakClassifiers></_>
    <!-- stage 4 -->
    <_>
      <maxWeakCount>56</maxWeakCount>
      <stageThreshold>-6.3135439157485962e-01</stageThreshold>
      <weakClassifiers>
        <_>
          <internalNodes>
            0 -1 37 6.5086167305707932e-03</internalNodes>
          <leafValues>
            2.0631341636180878e-01 5.7667386531829834e-01</leafValues></_>
        <_>
          <internalNodes>
            0 -1 162 5.1601659506559372e-03</internalNodes>
          <leafValues>
            -6.7866973578929901e-02 3.4903296828269958e-01</leafValues></_>
        <_>
          <internalNodes>
            0 -1 110 6.9108176976442337e-03</internalNodes>
          <leafValues>
            -1.5315301716327667e-01 2.7049168944358826e-01</leafValues></_>
        <_>
          <internalNodes>
            0 -1 481 -2.4231881834566593e-03</internalNodes>
          <leafValues>
            2.7845254540443420e-01 -1.0333136469125748e-01</leafValues></_>
        <_>
          <internalNodes>
            0 -1 452 -1.1376498732715845e-03</internalNodes>
          <leafValues>
            2.7016320824623108e-01 -1.7617653310298920e-01</leafValues></_>
        <_>
          <internalNodes>
            0 -1 480 -1.6650354955345392e-03</internalNodes>
          <leafValues>
            -3.7290015816688538e-01 1.0910090059041977e-01</leafValues></_>
        <_>
          <internalNodes>
            0 -1 290 -1.6091351862996817e-03</internalNodes>
          <leafValues>
            2.1240396797657013e-01 -1.4956621825695038e-01</leafValues></_>
        <_>
          <internalNodes>
            0 -1 25 2.5311086792498827e-03</internalNodes>
          <leafValues>
            -1.1205858737230301e-01 3.0434712767601013e-01</leafValues></_>
        <_>
          <internalNodes>
            0 -1 7 -5.4724067449569702e-03</internalNodes>
          <leafValues>
            2.5709572434425354e-01 -1.3556349277496338e-01</leafValues></_>
        <_>
          <internalNodes>
            0 -1 411 1.0721950791776180e-02</internalNodes>
          <leafValues>
            -9.2183113098144531e-02 3.1842112541198730e-01</leafValues></_>
        <_>
          <internalNodes>
            0 -1 218 -6.4263241365551949e-03</internalNodes>
          <leafValues>
            2.5356718897819519e-01 -1.0353979468345642e-01</leafValues></_>
        <_>
          <internalNodes>
            0 -1 284 -5.1504142582416534e-02</internalNodes>
          <leafValues>
            3.8863906264305115e-01 -6.7515939474105835e-02</leafValues></_>
        <_>
          <internalNodes>
            0 -1 86 -1.0971983429044485e-03</internalNodes>
          <leafValues>
            -3.7612003087997437e-01 7.2974115610122681e-02</leafValues></_>
        <_>
          <internalNodes>
            0 -1 482 -3.2110824249684811e-03</internalNodes>
          <leafValues>
            -6.7714118957519531e-01 3.8548909127712250e-02</leafValues></_>
        <_>
          <internalNodes>
            0 -1 48 -1.4590537175536156e-03</internalNodes>
          <leafValues>
            1.8147824704647064e-01 -1.4539541304111481e-01</leafValues></_>
        <_>
          <internalNodes>
            0 -1 251 2.7814494445919991e-02</internalNodes>
          <leafValues>
            3.3148165792226791e-02 -8.3451503515243530e-01</leafValues></_>
        <_>
          <internalNodes>
            0 -1 220 -1.9956910982728004e-03</internalNodes>
          <leafValues>
            2.1281215548515320e-01 -1.2656538188457489e-01</leafValues></_>
        <_>
          <internalNodes>
            0 -1 204 1.6408788505941629e-03</internalNodes>
          <leafValues>
            -1.2892545759677887e-01 2.2943776845932007e-01</leafValues></_>
        <_>
          <internalNodes>
            0 -1 101 2.1443646401166916e-03</internalNodes>
          <leafValues>
            8.3952397108078003e-02 -3.6452910304069519e-01</leafValues></_>
        <_>
          <internalNodes>
            0 -1 252 -3.2714458648115396e-03</internalNodes>
          <leafValues>
            2.2417707741260529e-01 -1.2322257459163666e-01</leafValues></_>
        <_>
          <internalNodes>
            0 -1 413 2.1026033908128738e-02</internalNodes>
          <leafValues>
            -6.8514026701450348e-02 3.2121869921684265e-01</leafValues></_>
        <_>
          <internalNodes>
            0 -1 426 2.4091847240924835e-02</internalNodes>
          <leafValues>
            4.4728286564350128e-02 -5.3605222702026367e-01</leafValues></_>
        <_>
          <internalNodes>
            0 -1 383 -1.9338782876729965e-02</internalNodes>
          <leafValues>
            3.3451882004737854e-01 -6.9827228784561157e-02</leafValues></_>
        <_>
          <internalNodes>
            0 -1 441 -8.5219014436006546e-03</internalNodes>
          <leafValues>
            -3.2774427533149719e-01 7.3773495852947235e-02</leafValues></_>
        <_>
          <internalNodes>
            0 -1 427 -1.0205188766121864e-02</internalNodes>
          <leafValues>
            -4.1048264503479004e-01 5.8945368975400925e-02</leafValues></_>
        <_>
          <internalNodes>
            0 -1 131 -2.5711453054100275e-03</internalNodes>
          <leafValues>
            2.6621401309967041e-01 -9.7391054034233093e-02</leafValues></_>
        <_>
          <internalNodes>
            0 -1 133 1.4961741399019957e-03</internalNodes>
          <leafValues>
            -1.0851981490850449e-01 3.5252523422241211e-01</leafValues></_>
        <_>
          <internalNodes>
            0 -1 33 -3.1353209167718887e-02</internalNodes>
          <leafValues>
            -4.5105743408203125e-01 6.3880249857902527e-02</leafValues></_>
        <_>
          <internalNodes>
            0 -1 123 1.9038130994886160e-03</internalNodes>
          <leafValues>
            5.2895739674568176e-02 -4.2471465468406677e-01</leafValues></_>
        <_>
          <internalNodes>
            0 -1 229 -2.3354501463472843e-03</internalNodes>
          <leafValues>
            2.0739197731018066e-01 -1.2046977132558823e-01</leafValues></_>
        <_>
          <internalNodes>
            0 -1 334 5.5701206438243389e-03</internalNodes>
          <leafValues>
            -8.8456213474273682e-02 2.7766308188438416e-01</leafValues></_>
        <_>
          <internalNodes>
            0 -1 313 -3.6323238164186478e-03</internalNodes>
          <leafValues>
            3.2746693491935730e-01 -9.0690813958644867e-02</leafValues></_>
        <_>
          <internalNodes>
            0 -1 300 7.1914435829967260e-04</internalNodes>
          <leafValues>
            -1.0561248660087585e-01 2.4090924859046936e-01</leafValues></_>
        <_>
          <internalNodes>
            0 -1 302 -1.2882233131676912e-03</internalNodes>
          <leafValues>
            2.5038647651672363e-01 -9.8526626825332642e-02</leafValues></_>
        <_>
          <internalNodes>
            0 -1 330 2.1078437566757202e-03</internalNodes>
          <leafValues>
            -1.3031090795993805e-01 1.9068594276905060e-01</leafValues></_>
        <_>
          <internalNodes>
            0 -1 484 -2.2753356024622917e-03</internalNodes>
          <leafValues>
            -3.6938756704330444e-01 6.7085787653923035e-02</leafValues></_>
        <_>
          <internalNodes>
            0 -1 282 -1.5462482348084450e-02</internalNodes>
          <leafValues>
            1.8158042430877686e-01 -1.3069747388362885e-01</leafValues></_>
        <_>
          <internalNodes>
            0 -1 397 -2.1056567784398794e-03</internalNodes>
          <leafValues>
            1.5925163030624390e-01 -1.6158807277679443e-01</leafValues></_>
        <_>
          <internalNodes>
            0 -1 425 7.6302085071802139e-03</internalNodes>
          <leafValues>
            -9.3132890760898590e-02 3.1745237112045288e-01</leafValues></_>
        <_>
          <internalNodes>
            0 -1 471 -3.6546976771205664e-03</internalNodes>
          <leafValues>
            -5.2386534214019775e-01 5.1922574639320374e-02</leafValues></_>
        <_>
          <internalNodes>
            0 -1 244 2.3634308017790318e-03</internalNodes>
          <leafValues>
            -1.0948707163333893e-01 2.3958626389503479e-01</leafValues></_>
        <_>
          <internalNodes>
            0 -1 310 -4.9544568173587322e-04</internalNodes>
          <leafValues>
            2.6723903417587280e-01 -1.2703831493854523e-01</leafValues></_>
        <_>
          <internalNodes>
            0 -1 401 1.7735599540174007e-03</internalNodes>
          <leafValues>
            -1.5240274369716644e-01 1.6769647598266602e-01</leafValues></_>
        <_>
          <internalNodes>
            0 -1 277 8.1009650602936745e-04</internalNodes>
          <leafValues>
            -1.0589563101530075e-01 2.4239555001258850e-01</leafValues></_>
        <_>
          <internalNodes>
            0 -1 202 -3.0361261218786240e-02</internalNodes>
          <leafValues>
            5.3882545232772827e-01 -4.3729733675718307e-02</leafValues></_>
        <_>
          <internalNodes>
            0 -1 260 4.2786262929439545e-02</internalNodes>
          <leafValues>
            -2.3581402376294136e-02 8.2505387067794800e-01</leafValues></_>
        <_>
          <internalNodes>
            0 -1 10 -2.0613625645637512e-02</internalNodes>
          <leafValues>
            4.3569397926330566e-01 -4.8749599605798721e-02</leafValues></_>
        <_>
          <internalNodes>
            0 -1 396 -4.9970513209700584e-03</internalNodes>
          <leafValues>
            -6.2931847572326660e-01 4.2212288826704025e-02</leafValues></_>
        <_>
          <internalNodes>
            0 -1 448 -3.9238054305315018e-03</internalNodes>
          <leafValues>
            3.3726769685745239e-01 -7.4772752821445465e-02</leafValues></_>
        <_>
          <internalNodes>
            0 -1 331 -2.0758310332894325e-02</internalNodes>
          <leafValues>
            -7.1698468923568726e-01 3.7462770938873291e-02</leafValues></_>
        <_>
          <internalNodes>
            0 -1 174 1.3131083920598030e-02</internalNodes>
          <leafValues>
            6.3132368028163910e-02 -3.2950198650360107e-01</leafValues></_>
        <_>
          <internalNodes>
            0 -1 479 -1.3967931270599365e-02</internalNodes>
          <leafValues>
            -4.2995071411132812e-01 5.1159854978322983e-02</leafValues></_>
        <_>
          <internalNodes>
            0 -1 485 -1.5410671476274729e-03</internalNodes>
          <leafValues>
            -3.3508411049842834e-01 7.0301324129104614e-02</leafValues></_>
        <_>
          <internalNodes>
            0 -1 138 4.9480265006422997e-03</internalNodes>
          <leafValues>
            -1.0205312818288803e-01 2.2784504294395447e-01</leafValues></_>
        <_>
          <internalNodes>
            0 -1 175 -3.7526212632656097e-02</internalNodes>
          <leafValues>
            4.6898460388183594e-01 -4.3133202940225601e-02</leafValues></_>
        <_>
          <internalNodes>
            0 -1 196 7.2491271421313286e-03</internalNodes>
          <leafValues>
            -8.4052503108978271e-02 2.6135197281837463e-01</leafValues></_></weakClassifiers></_>
    <!-- stage 5 -->
    <_>
      <maxWeakCount>56</maxWeakCount>
      <stageThreshold>-6.1827677488327026e-01</stageThreshold>
      <weakClassifiers>
        <_>
          <internalNodes>
            0 -1 272 -4.0944619104266167e-03</internalNodes>
          <leafValues>
            -2.2321428358554840e-01 3.8368335366249084e-01</leafValues></_>
        <_>
          <internalNodes>
            0 -1 432 3.8560815155506134e-03</internalNodes>
          <leafValues>
            -1.0907825827598572e-01 2.9509565234184265e-01</leafValues></_>
        <_>
          <internalNodes>
            0 -1 95 -4.9412203952670097e-04</internalNodes>
          <leafValues>
            1.8320944905281067e-01 -1.9665697216987610e-01</leafValues></_>
        <_>
          <internalNodes>
            0 -1 311 -3.4919497556984425e-03</internalNodes>
          <leafValues>
            -4.3386116623878479e-01 6.5945647656917572e-02</leafValues></_>
        <_>
          <internalNodes>
            0 -1 22 1.9677380099892616e-02</internalNodes>
          <leafValues>
            -9.4729743897914886e-02 3.0059432983398438e-01</leafValues></_>
        <_>
          <internalNodes>
            0 -1 327 -1.9087311811745167e-03</internalNodes>
          <leafValues>
            2.3754924535751343e-01 -1.5134021639823914e-01</leafValues></_>
        <_>
          <internalNodes>
            0 -1 351 2.1748701110482216e-03</internalNodes>
          <leafValues>
            -1.0248653590679169e-01 3.2248312234878540e-01</leafValues></_>
        <_>
          <internalNodes>
            0 -1 82 -2.7043190784752369e-03</internalNodes>
          <leafValues>
            1.7586351931095123e-01 -1.5487836301326752e-01</leafValues></_>
        <_>
          <internalNodes>
            0 -1 357 -1.2366937007755041e-03</internalNodes>
          <leafValues>
            1.9463908672332764e-01 -1.4231048524379730e-01</leafValues></_>
        <_>
          <internalNodes>
            0 -1 469 5.8405799791216850e-04</internalNodes>
          <leafValues>
            1.0706257075071335e-01 -2.4038045108318329e-01</leafValues></_>
        <_>
          <internalNodes>
            0 -1 467 -1.7015368212014437e-03</internalNodes>
          <leafValues>
            -4.2486950755119324e-01 6.2533885240554810e-02</leafValues></_>
        <_>
          <internalNodes>
            0 -1 217 2.2186964750289917e-02</internalNodes>
          <leafValues>
            -9.7734957933425903e-02 3.0343386530876160e-01</leafValues></_>
        <_>
          <internalNodes>
            0 -1 127 -3.3964691683650017e-03</internalNodes>
          <leafValues>
            -3.7473121285438538e-01 7.5703971087932587e-02</leafValues></_>
        <_>
          <internalNodes>
            0 -1 177 5.1373049616813660e-02</internalNodes>
          <leafValues>
            -6.6321521997451782e-02 4.2810067534446716e-01</leafValues></_>
        <_>
          <internalNodes>
            0 -1 435 5.9891873970627785e-03</internalNodes>
          <leafValues>
            -7.1079000830650330e-02 3.5547295212745667e-01</leafValues></_>
        <_>
          <internalNodes>
            0 -1 455 -2.1702391095459461e-03</internalNodes>
          <leafValues>
            2.4063959717750549e-01 -1.1983498930931091e-01</leafValues></_>
        <_>
          <internalNodes>
            0 -1 120 -4.2049484327435493e-03</internalNodes>
          <leafValues>
            -5.4988193511962891e-01 5.2536211907863617e-02</leafValues></_>
        <_>
          <internalNodes>
            0 -1 192 -1.6322432458400726e-01</internalNodes>
          <leafValues>
            6.8870383501052856e-01 -3.8594678044319153e-02</leafValues></_>
        <_>
          <internalNodes>
            0 -1 66 2.0649015903472900e-02</internalNodes>
          <leafValues>
            -6.7784562706947327e-02 3.6838430166244507e-01</leafValues></_>
        <_>
          <internalNodes>
            0 -1 422 1.2180734192952514e-03</internalNodes>
          <leafValues>
            -1.2301875650882721e-01 2.1826916933059692e-01</leafValues></_>
        <_>
          <internalNodes>
            0 -1 477 2.4716402404010296e-03</internalNodes>
          <leafValues>
            6.6069416701793671e-02 -4.6493807435035706e-01</leafValues></_>
        <_>
          <internalNodes>
            0 -1 439 5.7133017107844353e-03</internalNodes>
          <leafValues>
            4.6382773667573929e-02 -5.6490117311477661e-01</leafValues></_>
        <_>
          <internalNodes>
            0 -1 294 4.6307449229061604e-03</internalNodes>
          <leafValues>
            3.0082039535045624e-02 -7.3726797103881836e-01</leafValues></_>
        <_>
          <internalNodes>
            0 -1 155 -1.6486085951328278e-01</internalNodes>
          <leafValues>
            6.6306126117706299e-01 -4.3412756174802780e-02</leafValues></_>
        <_>
          <internalNodes>
            0 -1 191 -1.2749922275543213e-01</internalNodes>
          <leafValues>
            4.9596351385116577e-01 -4.0809020400047302e-02</leafValues></_>
        <_>
          <internalNodes>
            0 -1 91 9.8408557474613190e-02</internalNodes>
          <leafValues>
            -5.7225324213504791e-02 4.1789340972900391e-01</leafValues></_>
        <_>
          <internalNodes>
            0 -1 97 -1.9925762899219990e-03</internalNodes>
          <leafValues>
            2.8695535659790039e-01 -8.4975376725196838e-02</leafValues></_>
        <_>
          <internalNodes>
            0 -1 405 -7.5732509139925241e-04</internalNodes>
          <leafValues>
            2.3007474839687347e-01 -9.2505045235157013e-02</leafValues></_>
        <_>
          <internalNodes>
            0 -1 80 -1.7266157083213329e-03</internalNodes>
          <leafValues>
            -3.2759800553321838e-01 6.5771624445915222e-02</leafValues></_>
        <_>
          <internalNodes>
            0 -1 79 -9.2890404630452394e-05</internalNodes>
          <leafValues>
            1.6382670402526855e-01 -1.7070996761322021e-01</leafValues></_>
        <_>
          <internalNodes>
            0 -1 158 -1.4932648045942187e-03</internalNodes>
          <leafValues>
            2.1721167862415314e-01 -1.0892175883054733e-01</leafValues></_>
        <_>
          <internalNodes>
            0 -1 195 1.5822228789329529e-01</internalNodes>
          <leafValues>
            -4.5069873332977295e-02 5.0863856077194214e-01</leafValues></_>
        <_>
          <internalNodes>
            0 -1 346 1.2478698045015335e-02</internalNodes>
          <leafValues>
            3.6757726222276688e-02 -6.5682071447372437e-01</leafValues></_>
        <_>
          <internalNodes>
            0 -1 86 -1.2912312522530556e-03</internalNodes>
          <leafValues>
            -3.8740587234497070e-01 5.2278708666563034e-02</leafValues></_>
        <_>
          <internalNodes>
            0 -1 379 -6.6690077073872089e-04</internalNodes>
          <leafValues>
            1.9435481727123260e-01 -1.0840310156345367e-01</leafValues></_>
        <_>
          <internalNodes>
            0 -1 226 -3.5118442028760910e-03</internalNodes>
          <leafValues>
            -4.8924174904823303e-01 4.4400878250598907e-02</leafValues></_>
        <_>
          <internalNodes>
            0 -1 228 1.5644572675228119e-02</internalNodes>
          <leafValues>
            -5.3254291415214539e-02 4.2550817131996155e-01</leafValues></_>
        <_>
          <internalNodes>
            0 -1 74 2.7115155011415482e-02</internalNodes>
          <leafValues>
            5.4603263735771179e-02 -4.3855404853820801e-01</leafValues></_>
        <_>
          <internalNodes>
            0 -1 329 -1.7271530814468861e-03</internalNodes>
          <leafValues>
            3.5101062059402466e-01 -6.2794141471385956e-02</leafValues></_>
        <_>
          <internalNodes>
            0 -1 370 7.8058429062366486e-03</internalNodes>
          <leafValues>
            -3.7612803280353546e-02 5.5976790189743042e-01</leafValues></_>
        <_>
          <internalNodes>
            0 -1 362 2.7637395542114973e-03</internalNodes>
          <leafValues>
            -1.2021583318710327e-01 1.7942738533020020e-01</leafValues></_>
        <_>
          <internalNodes>
            0 -1 378 -4.1157612577080727e-04</internalNodes>
          <leafValues>
            1.8038903176784515e-01 -1.3352160155773163e-01</leafValues></_>
        <_>
          <internalNodes>
            0 -1 279 7.5801953673362732e-02</internalNodes>
          <leafValues>
            3.0033828690648079e-02 -7.0408165454864502e-01</leafValues></_>
        <_>
          <internalNodes>
            0 -1 480 2.4906378239393234e-03</internalNodes>
          <leafValues>
            4.4183705002069473e-02 -4.3955212831497192e-01</leafValues></_>
        <_>
          <internalNodes>
            0 -1 189 -1.7199475318193436e-02</internalNodes>
          <leafValues>
            -6.1004287004470825e-01 3.4680347889661789e-02</leafValues></_>
        <_>
          <internalNodes>
            0 -1 366 1.6459926962852478e-02</internalNodes>
          <leafValues>
            5.9783414006233215e-02 -3.2854613661766052e-01</leafValues></_>
        <_>
          <internalNodes>
            0 -1 227 4.8997933045029640e-03</internalNodes>
          <leafValues>
            4.1513402014970779e-02 -4.9456870555877686e-01</leafValues></_>
        <_>
          <internalNodes>
            0 -1 476 -2.1097082644701004e-03</internalNodes>
          <leafValues>
            2.4689467251300812e-01 -8.8016994297504425e-02</leafValues></_>
        <_>
          <internalNodes>
            0 -1 269 -5.9487961698323488e-04</internalNodes>
          <leafValues>
            1.7588418722152710e-01 -1.2472058087587357e-01</leafValues></_>
        <_>
          <internalNodes>
            0 -1 271 -8.8394468184560537e-04</internalNodes>
          <leafValues>
            3.0163282155990601e-01 -1.1170819401741028e-01</leafValues></_>
        <_>
          <internalNodes>
            0 -1 41 1.0657710954546928e-03</internalNodes>
          <leafValues>
            -1.2518113851547241e-01 1.9325415790081024e-01</leafValues></_>
        <_>
          <internalNodes>
            0 -1 274 3.4111747518181801e-03</internalNodes>
          <leafValues>
            -9.7470432519912720e-02 2.4510391056537628e-01</leafValues></_>
        <_>
          <internalNodes>
            0 -1 248 3.9225942455232143e-03</internalNodes>
          <leafValues>
            5.1811039447784424e-02 -4.5522460341453552e-01</leafValues></_>
        <_>
          <internalNodes>
            0 -1 42 -2.6183135341852903e-03</internalNodes>
          <leafValues>
            1.9417668879032135e-01 -1.0965704172849655e-01</leafValues></_>
        <_>
          <internalNodes>
            0 -1 50 -6.1385445296764374e-03</internalNodes>
          <leafValues>
            -5.7191354036331177e-01 4.3495181947946548e-02</leafValues></_>
        <_>
          <internalNodes>
            0 -1 315 -2.5148054119199514e-03</internalNodes>
          <leafValues>
            1.8614719808101654e-01 -1.1740051209926605e-01</leafValues></_></weakClassifiers></_>
    <!-- stage 6 -->
    <_>
      <maxWeakCount>66</maxWeakCount>
      <stageThreshold>-5.8464038372039795e-01</stageThreshold>
      <weakClassifiers>
        <_>
          <internalNodes>
            0 -1 43 4.4814203865826130e-03</internalNodes>
          <leafValues>
            2.2569641470909119e-01 5.3453773260116577e-01</leafValues></_>
        <_>
          <internalNodes>
            0 -1 206 -6.1089918017387390e-03</internalNodes>
          <leafValues>
            -5.6043678522109985e-01 6.2341891229152679e-02</leafValues></_>
        <_>
          <internalNodes>
            0 -1 141 1.1214355006814003e-02</internalNodes>
          <leafValues>
            -1.1435562372207642e-01 1.9429796934127808e-01</leafValues></_>
        <_>
          <internalNodes>
            0 -1 113 2.3019579239189625e-03</internalNodes>
          <leafValues>
            5.2496146410703659e-02 -4.4239273667335510e-01</leafValues></_>
        <_>
          <internalNodes>
            0 -1 435 -1.3527019880712032e-02</internalNodes>
          <leafValues>
            4.4329461455345154e-01 -5.3076583892107010e-02</leafValues></_>
        <_>
          <internalNodes>
            0 -1 4 1.1067401617765427e-02</internalNodes>
          <leafValues>
            -1.1145216226577759e-01 2.4056918919086456e-01</leafValues></_>
        <_>
          <internalNodes>
            0 -1 455 3.4746858291327953e-03</internalNodes>
          <leafValues>
            -1.2584543228149414e-01 2.0876319706439972e-01</leafValues></_>
        <_>
          <internalNodes>
            0 -1 64 -1.4871880412101746e-02</internalNodes>
          <leafValues>
            3.6604771018028259e-01 -5.7489842176437378e-02</leafValues></_>
        <_>
          <internalNodes>
            0 -1 294 -1.5151362167671323e-03</internalNodes>
          <leafValues>
            2.4738813936710358e-01 -9.7523532807826996e-02</leafValues></_>
        <_>
          <internalNodes>
            0 -1 68 -1.7196545377373695e-03</internalNodes>
          <leafValues>
            1.3693812489509583e-01 -1.5240941941738129e-01</leafValues></_>
        <_>
          <internalNodes>
            0 -1 456 -1.3967804843559861e-03</internalNodes>
          <leafValues>
            1.7552140355110168e-01 -1.2833505868911743e-01</leafValues></_>
        <_>
          <internalNodes>
            0 -1 312 -2.3253038525581360e-03</internalNodes>
          <leafValues>
            2.4733558297157288e-01 -8.1570833921432495e-02</leafValues></_>
        <_>
          <internalNodes>
            0 -1 325 -4.3465505586937070e-04</internalNodes>
          <leafValues>
            1.5950417518615723e-01 -1.5580111742019653e-01</leafValues></_>
        <_>
          <internalNodes>
            0 -1 104 1.6792197711765766e-03</internalNodes>
          <leafValues>
            5.8824740350246429e-02 -4.0302881598472595e-01</leafValues></_>
        <_>
          <internalNodes>
            0 -1 128 -6.1592854559421539e-02</internalNodes>
          <leafValues>
            3.4622693061828613e-01 -6.0599591583013535e-02</leafValues></_>
        <_>
          <internalNodes>
            0 -1 475 -4.1784774512052536e-03</internalNodes>
          <leafValues>
            1.8899917602539062e-01 -1.1818430572748184e-01</leafValues></_>
        <_>
          <internalNodes>
            0 -1 445 -1.5914828982204199e-03</internalNodes>
          <leafValues>
            2.0070287585258484e-01 -1.1402641236782074e-01</leafValues></_>
        <_>
          <internalNodes>
            0 -1 259 -6.6764816641807556e-02</internalNodes>
          <leafValues>
            3.8620838522911072e-01 -5.5827129632234573e-02</leafValues></_>
        <_>
          <internalNodes>
            0 -1 395 -7.3708728887140751e-03</internalNodes>
          <leafValues>
            -4.4980248808860779e-01 5.2347131073474884e-02</leafValues></_>
        <_>
          <internalNodes>
            0 -1 449 -1.3167791068553925e-02</internalNodes>
          <leafValues>
            -4.5173719525337219e-01 4.5275654643774033e-02</leafValues></_>
        <_>
          <internalNodes>
            0 -1 423 5.7051335461437702e-03</internalNodes>
          <leafValues>
            -1.0817605257034302e-01 1.7374795675277710e-01</leafValues></_>
        <_>
          <internalNodes>
            0 -1 423 -4.5139379799365997e-03</internalNodes>
          <leafValues>
            3.1640231609344482e-01 -7.0414125919342041e-02</leafValues></_>
        <_>
          <internalNodes>
            0 -1 287 -6.5622414695098996e-04</internalNodes>
          <leafValues>
            1.7773346602916718e-01 -1.1447007954120636e-01</leafValues></_>
        <_>
          <internalNodes>
            0 -1 63 -8.8446140289306641e-03</internalNodes>
          <leafValues>
            -2.5240737199783325e-01 9.5245636999607086e-02</leafValues></_>
        <_>
          <internalNodes>
            0 -1 142 -9.4649073434993625e-04</internalNodes>
          <leafValues>
            1.8060746788978577e-01 -1.0920363664627075e-01</leafValues></_>
        <_>
          <internalNodes>
            0 -1 278 -4.0644966065883636e-03</internalNodes>
          <leafValues>
            -3.1772351264953613e-01 6.7117780447006226e-02</leafValues></_>
        <_>
          <internalNodes>
            0 -1 354 1.4882725477218628e-01</internalNodes>
          <leafValues>
            -3.5934131592512131e-02 5.7112681865692139e-01</leafValues></_>
        <_>
          <internalNodes>
            0 -1 373 -7.0174655411392450e-04</internalNodes>
          <leafValues>
            2.1689663827419281e-01 -8.3239644765853882e-02</leafValues></_>
        <_>
          <internalNodes>
            0 -1 98 -5.3314426913857460e-03</internalNodes>
          <leafValues>
            2.9413747787475586e-01 -6.9122232496738434e-02</leafValues></_>
        <_>
          <internalNodes>
            0 -1 55 -4.3669883161783218e-03</internalNodes>
          <leafValues>
            1.9682759046554565e-01 -1.0900428891181946e-01</leafValues></_>
        <_>
          <internalNodes>
            0 -1 126 -3.6877831444144249e-03</internalNodes>
          <leafValues>
            -2.7196925878524780e-01 7.6997131109237671e-02</leafValues></_>
        <_>
          <internalNodes>
            0 -1 11 4.2161014862358570e-03</internalNodes>
          <leafValues>
            -6.2139552086591721e-02 3.0276423692703247e-01</leafValues></_>
        <_>
          <internalNodes>
            0 -1 324 -4.3337412178516388e-02</internalNodes>
          <leafValues>
            5.4128175973892212e-01 -3.8543421775102615e-02</leafValues></_>
        <_>
          <internalNodes>
            0 -1 420 -4.7781802713871002e-03</internalNodes>
          <leafValues>
            -3.9508509635925293e-01 5.1466692239046097e-02</leafValues></_>
        <_>
          <internalNodes>
            0 -1 320 5.0833652494475245e-04</internalNodes>
          <leafValues>
            -1.0138452053070068e-01 1.8246327340602875e-01</leafValues></_>
        <_>
          <internalNodes>
            0 -1 320 -3.5364332143217325e-04</internalNodes>
          <leafValues>
            1.8227311968803406e-01 -1.1525273323059082e-01</leafValues></_>
        <_>
          <internalNodes>
            0 -1 389 -4.2722569778561592e-03</internalNodes>
          <leafValues>
            -4.4864177703857422e-01 4.5409861952066422e-02</leafValues></_>
        <_>
          <internalNodes>
            0 -1 245 -1.6930252313613892e-02</internalNodes>
          <leafValues>
            -6.4988714456558228e-01 2.7284473180770874e-02</leafValues></_>
        <_>
          <internalNodes>
            0 -1 77 -2.5105420500040054e-02</internalNodes>
          <leafValues>
            -4.5005181431770325e-01 4.1278000921010971e-02</leafValues></_>
        <_>
          <internalNodes>
            0 -1 115 -5.0307828933000565e-03</internalNodes>
          <leafValues>
            2.1780768036842346e-01 -1.1336787045001984e-01</leafValues></_>
        <_>
          <internalNodes>
            0 -1 410 7.4118087068200111e-03</internalNodes>
          <leafValues>
            4.7857824712991714e-02 -3.9716735482215881e-01</leafValues></_>
        <_>
          <internalNodes>
            0 -1 326 5.7849502190947533e-03</internalNodes>
          <leafValues>
            6.0895670205354691e-02 -3.0375379323959351e-01</leafValues></_>
        <_>
          <internalNodes>
            0 -1 136 3.3587010111659765e-03</internalNodes>
          <leafValues>
            3.8377016782760620e-02 -5.0932210683822632e-01</leafValues></_>
        <_>
          <internalNodes>
            0 -1 198 -2.9534716159105301e-02</internalNodes>
          <leafValues>
            3.8971704244613647e-01 -5.0405263900756836e-02</leafValues></_>
        <_>
          <internalNodes>
            0 -1 41 1.0780773591250181e-03</internalNodes>
          <leafValues>
            -1.2219996750354767e-01 1.6720001399517059e-01</leafValues></_>
        <_>
          <internalNodes>
            0 -1 230 -5.9013208374381065e-03</internalNodes>
          <leafValues>
            2.7583903074264526e-01 -6.9782391190528870e-02</leafValues></_>
        <_>
          <internalNodes>
            0 -1 409 -3.6823004484176636e-03</internalNodes>
          <leafValues>
            1.7913529276847839e-01 -1.0171133279800415e-01</leafValues></_>
        <_>
          <internalNodes>
            0 -1 393 -4.6232748776674271e-02</internalNodes>
          <leafValues>
            -6.0798007249832153e-01 3.9163026958703995e-02</leafValues></_>
        <_>
          <internalNodes>
            0 -1 402 -6.3145923195406795e-04</internalNodes>
          <leafValues>
            1.2689499557018280e-01 -1.6249457001686096e-01</leafValues></_>
        <_>
          <internalNodes>
            0 -1 428 1.0501338168978691e-02</internalNodes>
          <leafValues>
            6.1063691973686218e-02 -3.5075554251670837e-01</leafValues></_>
        <_>
          <internalNodes>
            0 -1 231 -1.0769043117761612e-01</internalNodes>
          <leafValues>
            5.7476788759231567e-01 -3.8082793354988098e-02</leafValues></_>
        <_>
          <internalNodes>
            0 -1 254 5.6275114184245467e-04</internalNodes>
          <leafValues>
            -1.0951416194438934e-01 1.8985167145729065e-01</leafValues></_>
        <_>
          <internalNodes>
            0 -1 388 1.4600583817809820e-03</internalNodes>
          <leafValues>
            -7.7237673103809357e-02 2.6828071475028992e-01</leafValues></_>
        <_>
          <internalNodes>
            0 -1 90 -3.7444986402988434e-02</internalNodes>
          <leafValues>
            -6.1362540721893311e-01 3.4032654017210007e-02</leafValues></_>
        <_>
          <internalNodes>
            0 -1 161 5.3066546097397804e-03</internalNodes>
          <leafValues>
            -7.3495320975780487e-02 2.8000023961067200e-01</leafValues></_>
        <_>
          <internalNodes>
            0 -1 92 -9.5661904197186232e-04</internalNodes>
          <leafValues>
            -2.6429820060729980e-01 7.4786372482776642e-02</leafValues></_>
        <_>
          <internalNodes>
            0 -1 44 -3.6631347611546516e-03</internalNodes>
          <leafValues>
            2.1501232683658600e-01 -9.1147035360336304e-02</leafValues></_>
        <_>
          <internalNodes>
            0 -1 190 1.3769694603979588e-02</internalNodes>
          <leafValues>
            5.7205632328987122e-02 -3.6563095450401306e-01</leafValues></_>
        <_>
          <internalNodes>
            0 -1 58 3.8181166164577007e-03</internalNodes>
          <leafValues>
            4.0180847048759460e-02 -4.6254870295524597e-01</leafValues></_>
        <_>
          <internalNodes>
            0 -1 170 1.4152853749692440e-02</internalNodes>
          <leafValues>
            -6.8522110581398010e-02 3.3091592788696289e-01</leafValues></_>
        <_>
          <internalNodes>
            0 -1 180 -4.2509741615504026e-04</internalNodes>
          <leafValues>
            2.0086504518985748e-01 -9.8785698413848877e-02</leafValues></_>
        <_>
          <internalNodes>
            0 -1 200 1.6063511371612549e-02</internalNodes>
          <leafValues>
            -5.6385125964879990e-02 3.8038560748100281e-01</leafValues></_>
        <_>
          <internalNodes>
            0 -1 111 -7.1663870476186275e-03</internalNodes>
          <leafValues>
            -3.8328492641448975e-01 5.6844275444746017e-02</leafValues></_>
        <_>
          <internalNodes>
            0 -1 30 2.8980709612369537e-03</internalNodes>
          <leafValues>
            -1.1669419705867767e-01 1.6819983720779419e-01</leafValues></_>
        <_>
          <internalNodes>
            0 -1 364 1.0185727151110768e-03</internalNodes>
          <leafValues>
            -1.0501839220523834e-01 1.8723496794700623e-01</leafValues></_>
        <_>
          <internalNodes>
            0 -1 298 -1.0791743174195290e-02</internalNodes>
          <leafValues>
            -7.4319928884506226e-01 2.4256486445665359e-02</leafValues></_></weakClassifiers></_>
    <!-- stage 7 -->
    <_>
      <maxWeakCount>84</maxWeakCount>
      <stageThreshold>-7.4739003181457520e-01</stageThreshold>
      <weakClassifiers>
        <_>
          <internalNodes>
            0 -1 337 1.0271277278661728e-02</internalNodes>
          <leafValues>
            2.3034329712390900e-01 5.4138702154159546e-01</leafValues></_>
        <_>
          <internalNodes>
            0 -1 413 1.6221810132265091e-02</internalNodes>
          <leafValues>
            -8.1858493387699127e-02 2.8905192017555237e-01</leafValues></_>
        <_>
          <internalNodes>
            0 -1 106 4.9522584304213524e-03</internalNodes>
          <leafValues>
            -1.0532315820455551e-01 3.9055198431015015e-01</leafValues></_>
        <_>
          <internalNodes>
            0 -1 20 5.1010507158935070e-03</internalNodes>
          <leafValues>
            -1.0049127787351608e-01 2.7450051903724670e-01</leafValues></_>
        <_>
          <internalNodes>
            0 -1 111 5.7841720990836620e-03</internalNodes>
          <leafValues>
            6.1309855431318283e-02 -3.7389573454856873e-01</leafValues></_>
        <_>
          <internalNodes>
            0 -1 99 -8.8007533922791481e-03</internalNodes>
          <leafValues>
            3.1470835208892822e-01 -7.3458358645439148e-02</leafValues></_>
        <_>
          <internalNodes>
            0 -1 61 -5.1557808183133602e-04</internalNodes>
          <leafValues>
            1.8259595334529877e-01 -1.3864454627037048e-01</leafValues></_>
        <_>
          <internalNodes>
            0 -1 84 4.6789897605776787e-03</internalNodes>
          <leafValues>
            4.3436799198389053e-02 -4.4314122200012207e-01</leafValues></_>
        <_>
          <internalNodes>
            0 -1 288 -1.2395521625876427e-03</internalNodes>
          <leafValues>
            1.8459345400333405e-01 -1.1234267055988312e-01</leafValues></_>
        <_>
          <internalNodes>
            0 -1 292 -4.7667653416283429e-04</internalNodes>
          <leafValues>
            2.1001382172107697e-01 -1.1770878732204437e-01</leafValues></_>
        <_>
          <internalNodes>
            0 -1 184 3.4906254149973392e-03</internalNodes>
          <leafValues>
            -1.2358937412500381e-01 1.7296539247035980e-01</leafValues></_>
        <_>
          <internalNodes>
            0 -1 487 4.9056643620133400e-03</internalNodes>
          <leafValues>
            -7.0913165807723999e-02 2.6099422574043274e-01</leafValues></_>
        <_>
          <internalNodes>
            0 -1 406 1.9707703031599522e-03</internalNodes>
          <leafValues>
            -8.0597482621669769e-02 2.5903850793838501e-01</leafValues></_>
        <_>
          <internalNodes>
            0 -1 380 5.6012421846389771e-03</internalNodes>
          <leafValues>
            -8.4060683846473694e-02 2.2122693061828613e-01</leafValues></_>
        <_>
          <internalNodes>
            0 -1 465 5.0400085747241974e-03</internalNodes>
          <leafValues>
            7.6042272150516510e-02 -2.6778656244277954e-01</leafValues></_>
        <_>
          <internalNodes>
            0 -1 87 1.1133505031466484e-03</internalNodes>
          <leafValues>
            6.9102801382541656e-02 -2.6255235075950623e-01</leafValues></_>
        <_>
          <internalNodes>
            0 -1 489 -1.1581771541386843e-03</internalNodes>
          <leafValues>
            2.4828852713108063e-01 -7.9785056412220001e-02</leafValues></_>
        <_>
          <internalNodes>
            0 -1 38 1.0385204106569290e-02</internalNodes>
          <leafValues>
            -7.4265226721763611e-02 2.7814164757728577e-01</leafValues></_>
        <_>
          <internalNodes>
            0 -1 255 6.2624933198094368e-03</internalNodes>
          <leafValues>
            -6.9972306489944458e-02 2.8063103556632996e-01</leafValues></_>
        <_>
          <internalNodes>
            0 -1 265 -8.0627144780009985e-04</internalNodes>
          <leafValues>
            1.8265262246131897e-01 -1.1989041417837143e-01</leafValues></_>
        <_>
          <internalNodes>
            0 -1 29 1.2640639906749129e-03</internalNodes>
          <leafValues>
            9.2112392187118530e-02 -2.2559522092342377e-01</leafValues></_>
        <_>
          <internalNodes>
            0 -1 459 3.8847019895911217e-03</internalNodes>
          <leafValues>
            5.5336281657218933e-02 -3.5123512148857117e-01</leafValues></_>
        <_>
          <internalNodes>
            0 -1 46 -2.2431202232837677e-03</internalNodes>
          <leafValues>
            3.3048361539840698e-01 -5.9538193047046661e-02</leafValues></_>
        <_>
          <internalNodes>
            0 -1 223 -5.4894844070076942e-03</internalNodes>
          <leafValues>
            -4.9802306294441223e-01 4.3473165482282639e-02</leafValues></_>
        <_>
          <internalNodes>
            0 -1 240 -1.7104370053857565e-03</internalNodes>
          <leafValues>
            2.9533246159553528e-01 -7.4809573590755463e-02</leafValues></_>
        <_>
          <internalNodes>
            0 -1 169 -3.4074783325195312e-02</internalNodes>
          <leafValues>
            3.4569731354713440e-01 -5.1557138562202454e-02</leafValues></_>
        <_>
          <internalNodes>
            0 -1 341 1.2586489319801331e-03</internalNodes>
          <leafValues>
            -1.1936210840940475e-01 1.5392094850540161e-01</leafValues></_>
        <_>
          <internalNodes>
            0 -1 5 2.8500417247414589e-03</internalNodes>
          <leafValues>
            -9.8445728421211243e-02 1.8990865349769592e-01</leafValues></_>
        <_>
          <internalNodes>
            0 -1 224 2.5543380528688431e-02</internalNodes>
          <leafValues>
            4.5165535062551498e-02 -4.4316017627716064e-01</leafValues></_>
        <_>
          <internalNodes>
            0 -1 287 1.0687037138268352e-03</internalNodes>
          <leafValues>
            -7.0277728140354156e-02 2.5488653779029846e-01</leafValues></_>
        <_>
          <internalNodes>
            0 -1 0 2.0195182412862778e-02</internalNodes>
          <leafValues>
            -5.6872036308050156e-02 3.0817449092864990e-01</leafValues></_>
        <_>
          <internalNodes>
            0 -1 34 -4.2933467775583267e-03</internalNodes>
          <leafValues>
            1.5505304932594299e-01 -1.2545081973075867e-01</leafValues></_>
        <_>
          <internalNodes>
            0 -1 1 -5.3635790944099426e-02</internalNodes>
          <leafValues>
            -5.6489121913909912e-01 3.7356089800596237e-02</leafValues></_>
        <_>
          <internalNodes>
            0 -1 49 1.0774312540888786e-03</internalNodes>
          <leafValues>
            -1.1132954806089401e-01 2.3637995123863220e-01</leafValues></_>
        <_>
          <internalNodes>
            0 -1 109 6.5179429948329926e-03</internalNodes>
          <leafValues>
            2.3513052612543106e-02 -7.3426282405853271e-01</leafValues></_>
        <_>
          <internalNodes>
            0 -1 208 4.8051821067929268e-03</internalNodes>
          <leafValues>
            -8.9957736432552338e-02 2.1420980989933014e-01</leafValues></_>
        <_>
          <internalNodes>
            0 -1 140 6.5464889630675316e-03</internalNodes>
          <leafValues>
            -1.1001051217317581e-01 2.0377567410469055e-01</leafValues></_>
        <_>
          <internalNodes>
            0 -1 314 -6.5430384129285812e-03</internalNodes>
          <leafValues>
            2.8702843189239502e-01 -7.6626434922218323e-02</leafValues></_>
        <_>
          <internalNodes>
            0 -1 286 -5.8028593659400940e-02</internalNodes>
          <leafValues>
            5.4629838466644287e-01 -2.9448896646499634e-02</leafValues></_>
        <_>
          <internalNodes>
            0 -1 322 -3.2836079597473145e-02</internalNodes>
          <leafValues>
            5.2503067255020142e-01 -3.5499215126037598e-02</leafValues></_>
        <_>
          <internalNodes>
            0 -1 455 4.1050370782613754e-03</internalNodes>
          <leafValues>
            -8.5669308900833130e-02 2.0543375611305237e-01</leafValues></_>
        <_>
          <internalNodes>
            0 -1 450 -3.4815103281289339e-03</internalNodes>
          <leafValues>
            2.0178897678852081e-01 -1.1522854864597321e-01</leafValues></_>
        <_>
          <internalNodes>
            0 -1 349 -2.5916006416082382e-03</internalNodes>
          <leafValues>
            2.1044088900089264e-01 -9.2964202165603638e-02</leafValues></_>
        <_>
          <internalNodes>
            0 -1 384 6.8297139368951321e-03</internalNodes>
          <leafValues>
            -1.1797332763671875e-01 1.5061798691749573e-01</leafValues></_>
        <_>
          <internalNodes>
            0 -1 398 9.7293958067893982e-02</internalNodes>
          <leafValues>
            3.1273834407329559e-02 -6.4870530366897583e-01</leafValues></_>
        <_>
          <internalNodes>
            0 -1 407 -1.1865114793181419e-03</internalNodes>
          <leafValues>
            1.8079531192779541e-01 -9.7642846405506134e-02</leafValues></_>
        <_>
          <internalNodes>
            0 -1 439 -4.1834767907857895e-03</internalNodes>
          <leafValues>
            -4.1016986966133118e-01 4.2025975883007050e-02</leafValues></_>
        <_>
          <internalNodes>
            0 -1 491 -2.4361195391975343e-04</internalNodes>
          <leafValues>
            -1.5867021679878235e-01 1.0969336330890656e-01</leafValues></_>
        <_>
          <internalNodes>
            0 -1 179 5.7943828403949738e-02</internalNodes>
          <leafValues>
            -3.8170356303453445e-02 5.0455713272094727e-01</leafValues></_>
        <_>
          <internalNodes>
            0 -1 86 -1.3707941398024559e-03</internalNodes>
          <leafValues>
            -3.8820025324821472e-01 5.3171891719102859e-02</leafValues></_>
        <_>
          <internalNodes>
            0 -1 160 3.6079029086977243e-03</internalNodes>
          <leafValues>
            -7.0511236786842346e-02 2.5385037064552307e-01</leafValues></_>
        <_>
          <internalNodes>
            0 -1 355 -2.8572296723723412e-03</internalNodes>
          <leafValues>
            2.0169916749000549e-01 -8.5388377308845520e-02</leafValues></_>
        <_>
          <internalNodes>
            0 -1 283 -5.0597138702869415e-02</internalNodes>
          <leafValues>
            4.0046635270118713e-01 -4.7001130878925323e-02</leafValues></_>
        <_>
          <internalNodes>
            0 -1 237 -1.0128770768642426e-01</internalNodes>
          <leafValues>
            5.3267365694046021e-01 -3.2018918544054031e-02</leafValues></_>
        <_>
          <internalNodes>
            0 -1 214 -3.0443534255027771e-02</internalNodes>
          <leafValues>
            4.5382401347160339e-01 -3.8838464766740799e-02</leafValues></_>
        <_>
          <internalNodes>
            0 -1 370 -1.6014000866562128e-03</internalNodes>
          <leafValues>
            2.0319838821887970e-01 -8.5871949791908264e-02</leafValues></_>
        <_>
          <internalNodes>
            0 -1 222 1.4360878616571426e-02</internalNodes>
          <leafValues>
            3.7448525428771973e-02 -4.8798462748527527e-01</leafValues></_>
        <_>
          <internalNodes>
            0 -1 199 1.6539800167083740e-01</internalNodes>
          <leafValues>
            -2.9703173786401749e-02 7.1860015392303467e-01</leafValues></_>
        <_>
          <internalNodes>
            0 -1 429 -3.9351016283035278e-02</internalNodes>
          <leafValues>
            -5.1140862703323364e-01 4.0973749011754990e-02</leafValues></_>
        <_>
          <internalNodes>
            0 -1 65 2.8747287578880787e-03</internalNodes>
          <leafValues>
            -1.1375705897808075e-01 1.7461040616035461e-01</leafValues></_>
        <_>
          <internalNodes>
            0 -1 165 -1.5146951191127300e-03</internalNodes>
          <leafValues>
            1.3693009316921234e-01 -1.3757413625717163e-01</leafValues></_>
        <_>
          <internalNodes>
            0 -1 113 4.3932371772825718e-03</internalNodes>
          <leafValues>
            2.7866797521710396e-02 -6.8980544805526733e-01</leafValues></_>
        <_>
          <internalNodes>
            0 -1 72 1.6717151083867066e-05</internalNodes>
          <leafValues>
            1.3238917291164398e-01 -1.4657428860664368e-01</leafValues></_>
        <_>
          <internalNodes>
            0 -1 377 1.1294465512037277e-02</internalNodes>
          <leafValues>
            -7.1446992456912994e-02 2.6490366458892822e-01</leafValues></_>
        <_>
          <internalNodes>
            0 -1 144 8.3695091307163239e-03</internalNodes>
          <leafValues>
            2.5352280586957932e-02 -7.9686802625656128e-01</leafValues></_>
        <_>
          <internalNodes>
            0 -1 26 -2.4246089160442352e-03</internalNodes>
          <leafValues>
            2.2063213586807251e-01 -8.2725219428539276e-02</leafValues></_>
        <_>
          <internalNodes>
            0 -1 27 2.5663729757070541e-03</internalNodes>
          <leafValues>
            -8.0529250204563141e-02 2.4669151008129120e-01</leafValues></_>
        <_>
          <internalNodes>
            0 -1 317 -2.8120528440922499e-03</internalNodes>
          <leafValues>
            1.6086360812187195e-01 -1.1527269333600998e-01</leafValues></_>
        <_>
          <internalNodes>
            0 -1 129 -1.9718143157660961e-03</internalNodes>
          <leafValues>
            -4.8470622301101685e-01 3.9446067065000534e-02</leafValues></_>
        <_>
          <internalNodes>
            0 -1 301 -3.7048072554171085e-03</internalNodes>
          <leafValues>
            -4.1657581925392151e-01 4.3010383844375610e-02</leafValues></_>
        <_>
          <internalNodes>
            0 -1 15 1.5064741019159555e-03</internalNodes>
          <leafValues>
            -7.9528197646141052e-02 2.3466612398624420e-01</leafValues></_>
        <_>
          <internalNodes>
            0 -1 386 -2.2061083465814590e-02</internalNodes>
          <leafValues>
            6.3990747928619385e-01 -2.9904978349804878e-02</leafValues></_>
        <_>
          <internalNodes>
            0 -1 361 -2.0600296556949615e-02</internalNodes>
          <leafValues>
            -4.5831787586212158e-01 4.6251505613327026e-02</leafValues></_>
        <_>
          <internalNodes>
            0 -1 150 2.7485229074954987e-03</internalNodes>
          <leafValues>
            4.3601822108030319e-02 -4.0601718425750732e-01</leafValues></_>
        <_>
          <internalNodes>
            0 -1 145 -4.2324671521782875e-03</internalNodes>
          <leafValues>
            2.5032937526702881e-01 -7.7153876423835754e-02</leafValues></_>
        <_>
          <internalNodes>
            0 -1 173 1.5531590208411217e-02</internalNodes>
          <leafValues>
            4.0451843291521072e-02 -4.8989385366439819e-01</leafValues></_>
        <_>
          <internalNodes>
            0 -1 112 5.0126109272241592e-03</internalNodes>
          <leafValues>
            -9.0297438204288483e-02 2.1640798449516296e-01</leafValues></_>
        <_>
          <internalNodes>
            0 -1 18 -1.6567850252613425e-03</internalNodes>
          <leafValues>
            1.7608742415904999e-01 -1.1002075672149658e-01</leafValues></_>
        <_>
          <internalNodes>
            0 -1 47 -1.1671170359477401e-03</internalNodes>
          <leafValues>
            1.6108021140098572e-01 -1.1660028249025345e-01</leafValues></_>
        <_>
          <internalNodes>
            0 -1 67 -2.3151583969593048e-02</internalNodes>
          <leafValues>
            -2.9210391640663147e-01 6.8207852542400360e-02</leafValues></_>
        <_>
          <internalNodes>
            0 -1 319 3.7965033203363419e-02</internalNodes>
          <leafValues>
            4.0204036980867386e-02 -4.6524518728256226e-01</leafValues></_>
        <_>
          <internalNodes>
            0 -1 343 -1.6648519085720181e-03</internalNodes>
          <leafValues>
            1.4990982413291931e-01 -1.2556546926498413e-01</leafValues></_>
        <_>
          <internalNodes>
            0 -1 213 3.1437821686267853e-02</internalNodes>
          <leafValues>
            -5.9556096792221069e-02 3.1275466084480286e-01</leafValues></_>
        <_>
          <internalNodes>
            0 -1 14 5.2232682704925537e-02</internalNodes>
          <leafValues>
            4.3062217533588409e-02 -4.5665237307548523e-01</leafValues></_></weakClassifiers></_>
    <!-- stage 8 -->
    <_>
      <maxWeakCount>71</maxWeakCount>
      <stageThreshold>-6.2576538324356079e-01</stageThreshold>
      <weakClassifiers>
        <_>
          <internalNodes>
            0 -1 391 -5.3350254893302917e-03</internalNodes>
          <leafValues>
            5.2571928501129150e-01 1.9124275445938110e-01</leafValues></_>
        <_>
          <internalNodes>
            0 -1 81 -2.3091300390660763e-03</internalNodes>
          <leafValues>
            2.1817848086357117e-01 -1.1537217348814011e-01</leafValues></_>
        <_>
          <internalNodes>
            0 -1 247 1.3216349761933088e-03</internalNodes>
          <leafValues>
            -1.6109429299831390e-01 1.5904432535171509e-01</leafValues></_>
        <_>
          <internalNodes>
            0 -1 381 -1.2466032058000565e-03</internalNodes>
          <leafValues>
            1.9136926531791687e-01 -1.5177457034587860e-01</leafValues></_>
        <_>
          <internalNodes>
            0 -1 156 -1.4663550537079573e-03</internalNodes>
          <leafValues>
            2.2905319929122925e-01 -1.1019703000783920e-01</leafValues></_>
        <_>
          <internalNodes>
            0 -1 149 4.5461207628250122e-03</internalNodes>
          <leafValues>
            -1.2703768908977509e-01 2.9553380608558655e-01</leafValues></_>
        <_>
          <internalNodes>
            0 -1 416 -1.1449212208390236e-02</internalNodes>
          <leafValues>
            4.2727276682853699e-01 -4.7059487551450729e-02</leafValues></_>
        <_>
          <internalNodes>
            0 -1 412 1.3182999566197395e-02</internalNodes>
          <leafValues>
            -1.2481059134006500e-01 2.3661236464977264e-01</leafValues></_>
        <_>
          <internalNodes>
            0 -1 111 -9.9226683378219604e-03</internalNodes>
          <leafValues>
            -5.5087071657180786e-01 4.0276616811752319e-02</leafValues></_>
        <_>
          <internalNodes>
            0 -1 159 -5.1628402434289455e-04</internalNodes>
          <leafValues>
            1.7484836280345917e-01 -1.4394100010395050e-01</leafValues></_>
        <_>
          <internalNodes>
            0 -1 92 -1.3010471593588591e-03</internalNodes>
          <leafValues>
            -3.2685855031013489e-01 6.2830567359924316e-02</leafValues></_>
        <_>
          <internalNodes>
            0 -1 85 3.5692550241947174e-02</internalNodes>
          <leafValues>
            3.3602971583604813e-02 -5.7482188940048218e-01</leafValues></_>
        <_>
          <internalNodes>
            0 -1 124 2.6400433853268623e-03</internalNodes>
          <leafValues>
            -9.2626459896564484e-02 2.4828627705574036e-01</leafValues></_>
        <_>
          <internalNodes>
            0 -1 125 -1.5526290517300367e-03</internalNodes>
          <leafValues>
            1.8582665920257568e-01 -1.2677186727523804e-01</leafValues></_>
        <_>
          <internalNodes>
            0 -1 470 4.7214454971253872e-03</internalNodes>
          <leafValues>
            3.2056342810392380e-02 -6.8509995937347412e-01</leafValues></_>
        <_>
          <internalNodes>
            0 -1 250 1.8373159691691399e-03</internalNodes>
          <leafValues>
            -9.1114424169063568e-02 2.2258424758911133e-01</leafValues></_>
        <_>
          <internalNodes>
            0 -1 383 3.7731632590293884e-02</internalNodes>
          <leafValues>
            -3.0647056177258492e-02 5.6559282541275024e-01</leafValues></_>
        <_>
          <internalNodes>
            0 -1 399 2.2419031709432602e-02</internalNodes>
          <leafValues>
            4.4497810304164886e-02 -4.3764576315879822e-01</leafValues></_>
        <_>
          <internalNodes>
            0 -1 463 -1.4795940369367599e-02</internalNodes>
          <leafValues>
            -2.5159785151481628e-01 7.2826534509658813e-02</leafValues></_>
        <_>
          <internalNodes>
            0 -1 445 -5.4858200019225478e-04</internalNodes>
          <leafValues>
            1.6253189742565155e-01 -1.2524911761283875e-01</leafValues></_>
        <_>
          <internalNodes>
            0 -1 474 -2.6304994244128466e-03</internalNodes>
          <leafValues>
            1.8241527676582336e-01 -1.3680849969387054e-01</leafValues></_>
        <_>
          <internalNodes>
            0 -1 486 8.2881678827106953e-04</internalNodes>
          <leafValues>
            -1.2827201187610626e-01 1.5488462150096893e-01</leafValues></_>
        <_>
          <internalNodes>
            0 -1 167 -1.6352399252355099e-03</internalNodes>
          <leafValues>
            2.3228643834590912e-01 -8.0783635377883911e-02</leafValues></_>
        <_>
          <internalNodes>
            0 -1 376 2.5914092548191547e-03</internalNodes>
          <leafValues>
            -1.2923924624919891e-01 1.4594690501689911e-01</leafValues></_>
        <_>
          <internalNodes>
            0 -1 93 -1.0022483766078949e-03</internalNodes>
          <leafValues>
            1.5095166862010956e-01 -1.2323136627674103e-01</leafValues></_>
        <_>
          <internalNodes>
            0 -1 203 2.9222451150417328e-02</internalNodes>
          <leafValues>
            -3.8570068776607513e-02 4.6679258346557617e-01</leafValues></_>
        <_>
          <internalNodes>
            0 -1 148 3.1524062156677246e-01</internalNodes>
          <leafValues>
            -2.3658936843276024e-02 6.9680136442184448e-01</leafValues></_>
        <_>
          <internalNodes>
            0 -1 98 -1.0515452362596989e-02</internalNodes>
          <leafValues>
            5.1430207490921021e-01 -3.3502046018838882e-02</leafValues></_>
        <_>
          <internalNodes>
            0 -1 262 6.1548195779323578e-02</internalNodes>
          <leafValues>
            -3.5309176892042160e-02 5.5742412805557251e-01</leafValues></_>
        <_>
          <internalNodes>
            0 -1 153 1.1308567225933075e-01</internalNodes>
          <leafValues>
            -4.7022096812725067e-02 3.8073140382766724e-01</leafValues></_>
        <_>
          <internalNodes>
            0 -1 105 -4.7611389891244471e-04</internalNodes>
          <leafValues>
            1.3737618923187256e-01 -1.3763539493083954e-01</leafValues></_>
        <_>
          <internalNodes>
            0 -1 443 -9.4624981284141541e-04</internalNodes>
          <leafValues>
            1.9620598852634430e-01 -9.8823815584182739e-02</leafValues></_>
        <_>
          <internalNodes>
            0 -1 434 -2.1076153498142958e-03</internalNodes>
          <leafValues>
            2.1794462203979492e-01 -9.8613582551479340e-02</leafValues></_>
        <_>
          <internalNodes>
            0 -1 483 1.5114838257431984e-02</internalNodes>
          <leafValues>
            3.4481190145015717e-02 -6.5862566232681274e-01</leafValues></_>
        <_>
          <internalNodes>
            0 -1 446 -4.2679044418036938e-03</internalNodes>
          <leafValues>
            -8.1085866689682007e-01 2.1949378773570061e-02</leafValues></_>
        <_>
          <internalNodes>
            0 -1 318 1.1204016627743840e-03</internalNodes>
          <leafValues>
            -1.3935728371143341e-01 1.3656421005725861e-01</leafValues></_>
        <_>
          <internalNodes>
            0 -1 303 1.2064777314662933e-02</internalNodes>
          <leafValues>
            3.8632765412330627e-02 -5.0403684377670288e-01</leafValues></_>
        <_>
          <internalNodes>
            0 -1 402 -5.6663481518626213e-04</internalNodes>
          <leafValues>
            1.2064439058303833e-01 -1.6535198688507080e-01</leafValues></_>
        <_>
          <internalNodes>
            0 -1 392 -1.0690869763493538e-02</internalNodes>
          <leafValues>
            -3.5609555244445801e-01 5.6869376450777054e-02</leafValues></_>
        <_>
          <internalNodes>
            0 -1 367 1.2524280697107315e-02</internalNodes>
          <leafValues>
            -2.4355275556445122e-02 9.1229945421218872e-01</leafValues></_>
        <_>
          <internalNodes>
            0 -1 387 4.1387313976883888e-03</internalNodes>
          <leafValues>
            -8.7507583200931549e-02 2.0483402907848358e-01</leafValues></_>
        <_>
          <internalNodes>
            0 -1 129 1.6549092251807451e-03</internalNodes>
          <leafValues>
            5.2147071808576584e-02 -3.9351817965507507e-01</leafValues></_>
        <_>
          <internalNodes>
            0 -1 3 -8.6112901568412781e-02</internalNodes>
          <leafValues>
            -3.3671119809150696e-01 5.0183918327093124e-02</leafValues></_>
        <_>
          <internalNodes>
            0 -1 374 5.8180373162031174e-03</internalNodes>
          <leafValues>
            -4.8037603497505188e-02 3.8726174831390381e-01</leafValues></_>
        <_>
          <internalNodes>
            0 -1 451 3.3962270244956017e-03</internalNodes>
          <leafValues>
            5.5684708058834076e-02 -3.3243089914321899e-01</leafValues></_>
        <_>
          <internalNodes>
            0 -1 272 3.2314213458448648e-03</internalNodes>
          <leafValues>
            4.6688947826623917e-02 -4.0851375460624695e-01</leafValues></_>
        <_>
          <internalNodes>
            0 -1 28 3.3155994024127722e-03</internalNodes>
          <leafValues>
            -8.2335174083709717e-02 2.3128135502338409e-01</leafValues></_>
        <_>
          <internalNodes>
            0 -1 9 -1.5316749922931194e-03</internalNodes>
          <leafValues>
            1.4164789021015167e-01 -1.4590753614902496e-01</leafValues></_>
        <_>
          <internalNodes>
            0 -1 289 -3.0017648823559284e-03</internalNodes>
          <leafValues>
            1.8636532127857208e-01 -9.4931200146675110e-02</leafValues></_>
        <_>
          <internalNodes>
            0 -1 2 -4.4201135635375977e-01</internalNodes>
          <leafValues>
            4.3957182765007019e-01 -4.4441282749176025e-02</leafValues></_>
        <_>
          <internalNodes>
            0 -1 365 9.1555658727884293e-03</internalNodes>
          <leafValues>
            4.7530390322208405e-02 -4.4924429059028625e-01</leafValues></_>
        <_>
          <internalNodes>
            0 -1 372 6.1998795717954636e-03</internalNodes>
          <leafValues>
            -8.7278693914413452e-02 2.2534351050853729e-01</leafValues></_>
        <_>
          <internalNodes>
            0 -1 281 -1.4240535907447338e-02</internalNodes>
          <leafValues>
            -6.7271399497985840e-01 2.9335245490074158e-02</leafValues></_>
        <_>
          <internalNodes>
            0 -1 215 1.3686096295714378e-02</internalNodes>
          <leafValues>
            -3.4106679260730743e-02 6.0049575567245483e-01</leafValues></_>
        <_>
          <internalNodes>
            0 -1 458 3.5211310023441911e-04</internalNodes>
          <leafValues>
            -1.1328537017107010e-01 1.5346266329288483e-01</leafValues></_>
        <_>
          <internalNodes>
            0 -1 56 2.8124907985329628e-03</internalNodes>
          <leafValues>
            5.9511296451091766e-02 -3.1383094191551208e-01</leafValues></_>
        <_>
          <internalNodes>
            0 -1 350 -2.8758579865098000e-03</internalNodes>
          <leafValues>
            2.2855848073959351e-01 -8.7371304631233215e-02</leafValues></_>
        <_>
          <internalNodes>
            0 -1 102 -1.1454447172582150e-02</internalNodes>
          <leafValues>
            -2.9641675949096680e-01 6.2142781913280487e-02</leafValues></_>
        <_>
          <internalNodes>
            0 -1 40 -3.1231052707880735e-03</internalNodes>
          <leafValues>
            2.1453036367893219e-01 -9.0041756629943848e-02</leafValues></_>
        <_>
          <internalNodes>
            0 -1 185 -2.9043252579867840e-03</internalNodes>
          <leafValues>
            1.8744064867496490e-01 -9.5394946634769440e-02</leafValues></_>
        <_>
          <internalNodes>
            0 -1 421 -5.1896907389163971e-03</internalNodes>
          <leafValues>
            -2.7982425689697266e-01 7.1544408798217773e-02</leafValues></_>
        <_>
          <internalNodes>
            0 -1 356 1.2915763072669506e-02</internalNodes>
          <leafValues>
            -2.1461753174662590e-02 9.0563803911209106e-01</leafValues></_>
        <_>
          <internalNodes>
            0 -1 168 8.2469694316387177e-03</internalNodes>
          <leafValues>
            4.8519454896450043e-02 -4.7495552897453308e-01</leafValues></_>
        <_>
          <internalNodes>
            0 -1 462 -2.0448374561965466e-03</internalNodes>
          <leafValues>
            1.8265950679779053e-01 -1.0312651842832565e-01</leafValues></_>
        <_>
          <internalNodes>
            0 -1 461 2.2091999650001526e-02</internalNodes>
          <leafValues>
            -5.8483000844717026e-02 2.9980093240737915e-01</leafValues></_>
        <_>
          <internalNodes>
            0 -1 166 5.5821891874074936e-03</internalNodes>
          <leafValues>
            -6.9058053195476532e-02 2.4406780302524567e-01</leafValues></_>
        <_>
          <internalNodes>
            0 -1 133 -1.1120170820504427e-03</internalNodes>
          <leafValues>
            1.9981771707534790e-01 -9.0811140835285187e-02</leafValues></_>
        <_>
          <internalNodes>
            0 -1 133 9.9366111680865288e-04</internalNodes>
          <leafValues>
            -1.0535128414630890e-01 2.2529317438602448e-01</leafValues></_>
        <_>
          <internalNodes>
            0 -1 304 -3.6460220813751221e-02</internalNodes>
          <leafValues>
            5.8865398168563843e-01 -2.8327845036983490e-02</leafValues></_>
        <_>
          <internalNodes>
            0 -1 311 2.7339751832187176e-03</internalNodes>
          <leafValues>
            5.2650310099124908e-02 -3.7702175974845886e-01</leafValues></_>
        <_>
          <internalNodes>
            0 -1 263 1.0651221871376038e-01</internalNodes>
          <leafValues>
            -3.6383442580699921e-02 5.2788615226745605e-01</leafValues></_></weakClassifiers></_>
    <!-- stage 9 -->
    <_>
      <maxWeakCount>73</maxWeakCount>
      <stageThreshold>-5.8843755722045898e-01</stageThreshold>
